-0.06273183 -0.007976765 -0.25963718 -0.05984648 -0.09530153 -0.14451078 -0.06412314 0.10609327 0.041869193 -0.1531371 -0.01288466 0.14533588 -0.030773321 -0.114628926 -0.047191177 -0.24638006 0.11690651 -0.08800714 0.024574218 -0.011003353 0.10621435 -0.16553132 -0.08961527 -0.18463983 -0.13296418 0.00920039 -0.016288348 -0.03507053 0.31761354 -0.0343482 0.17722088 -0.03723087 -0.034301545 -0.05063111 -0.0976006 0.027778322 0.10597172 -0.011401167 -0.077170864 0.004183203 -0.027423093 -0.05331129 0.062165998 0.11686457 -0.026135053 -0.016514203 -0.13074607 -0.17051427 0.061026208 -0.12655416 -0.09548072 0.025835885 0.019239482 -0.0024193965 -0.20074743 -0.060482994 0.13361229 0.06955994 0.19916598 0.17976475 0.22435622 0.15680307 -0.014353589 -0.019603698 0.11603683 0.07138456 0.10101742 0.22618356 0.2307124 -0.04042553 -0.0050804657 -0.14631137 -0.1878889 -0.16780539 0.15528245 0.078719154 0.22973205 0.13884865 0.11429809 -0.16359594 -0.17367265 -0.21823786 -0.15834014 -0.115099974 -0.14864342 -0.098927855 0.08640134 0.11879813 0.112509765 0.099090755 -0.008193405 -0.1308975 -0.09896184 -0.054786578 -0.12063889 -0.1918628 0.078889675 -0.0061416468 0.15692051 0.09016 -0.051002815 -0.11240936 0.09525205 0.13357687 -0.030633867 0.116339736 0.079242416 -0.06250408 -0.052448057 0.19779825 0.5786009 0.53889114 0.36771128 -0.17541873 -0.43130705 -0.40240267 -0.3560056 0.026434058 -0.05900686 -0.006546327 0.1262368 -0.022321358 0.083749644 -0.065157965 -0.038484883 -0.090414256 -0.011866314 0.07901897 -0.08194737 -0.032572687 0.010388491 -0.089531116 0.08556616 0.12385987 -0.041676935 -0.029513614 -0.034113567 0.014364203 0.008344761 0.05884664 -0.032312315 0.11568928 0.072960064 -0.079149224 -0.2001606 0.015505468 -0.07250319 -0.19555332 -0.12694234 -0.1971028 -0.072594166 -0.022373613 -0.19526896 0.26246178 0.154653 0.2513855 -0.044393633 -0.116553195 -0.13179208 -0.13186541 0.124564454 -0.02955995 0.11514412 -0.10438111 0.037711866 0.006045214 -0.05562542 0.13428673 -0.03730071 -0.011782418 -0.022490138 0.108279355 -0.03261016 0.07050966 -0.1650075 0.016996102 -0.13689019 -0.18282326 0.022628622 -0.1589523 -0.17448087 0.028287215 0.12167292 0.13087393 0.20945163 0.012754068 0.13153699 0.026207222 -0.14169268 0.19413783 0.19406465 -0.04895777 0.011112032 -0.0061116037 -0.12053408 -0.11116881 -0.11739854 -0.13643976 -0.09738689 -0.10260057 -0.11581752 -0.21896847 -0.16725034 0.088140495 -0.016873311 0.1393167 0.23990758 -0.143244 0.07366051 -0.008063092 0.11131307 -0.0031608047 0.13152006 -0.108672075 0.08525038 -0.049566444 0.053357538 -0.17081521 -0.16549034 -0.12738167 -0.027718112 0.22030008 0.078787886 0.07015261 0.19705611 0.08533852 -0.05443785 -0.0694072 -0.03553168 -0.07225451 -0.088709384 -0.08547067 -0.10155742 -0.17215861 -0.04678028 -0.12716462 0.046405848 0.060672753 -0.025266474 0.105842926 -0.04146095 0.0084877685 -0.16626932 -0.22336888 -0.048936464 -0.0154775055 0.025271099 0.18010354 0.095972985 0.1395612 0.1753046 0.24846439 -0.19549291 -0.083999045 -0.008405702 -0.14112984 -0.044965 -0.046417344 -0.17798775 -0.20465149 -0.14798333 0.1209437 -0.041574422 -0.11150104 -0.117288515 -0.17350532 -0.048350923 -0.07014731 -0.007345015 0.17680772 -0.1544927 -0.13810754 0.08483913 -0.07717214 -0.1142334 0.1531869 0.19054489 0.15645349 0.24013858 0.16505677 -0.056829534 -0.06152575 -0.07733349 -0.10321933 -0.00638266 0.10472071 -0.09432456 0.008744889 0.11827629 -0.048744477 -0.053605888 -0.036600087 -0.12328517 -0.18290603 -0.110217825 -0.044067767 -0.2291722 -0.18590595 -0.10096625 -0.025184993 0.06655701 0.13960451 -0.026642082 0.10600036 0.15424769 0.087569036 -0.05139977 0.10713829 -0.0553327 0.18207727 0.12321378 0.084516 0.1784195 0.043032095 0.102610685 -0.101502776 0.13293405 0.109691925 -0.032492496 0.18710655 -0.012760568 0.15142384 0.08784959 0.11440922 0.037229598 0.28885588 0.12976605 0.29051325 0.15084016 0.20116611 0.32691163 0.113147505 0.026223995 -0.09663512 -0.10510995 -0.18268815 -0.19933636 -0.18893692 0.10751505 0.10940065 -0.045427497 0.019773055 0.021050368 0.14162281 -0.0698773 -0.0022642254 -0.10453155 -0.009739833 0.021758005 -0.17555858 -0.18549128 -0.09396698 -0.122114494 -0.18237828 -0.0027945673 -0.05187276 0.0063221464 -0.048341513 0.14168164 0.16593681 -0.0975242 0.17695165 0.2036714 0.02740039 0.09245756 0.20682013 0.140094 0.17643219 0.02688245 -0.12120867 0.030604485 -0.033516083 -0.015639618 0.09137776 0.15287854 0.21818157 0.015805598 0.15407057 0.049525876 -0.08931008 0.04950634 -0.02848513 0.054600302 -0.12041603 0.10280653 -0.09358219 0.105033256 -0.2408985 -0.19651878 -0.043397333 -0.12660672 -0.09817483 -0.03919242 0.006206484 -0.23886345 -0.18032315 0.12948841 0.076555006 -0.089460306 -0.24547848 -0.005139852 -0.09517108 0.16475153 0.14663853 -0.008146704 -0.012415456 -0.11077912 -0.12205882 0.12341647 0.20463976 -0.060471028 -0.23057964 0.029046856 0.056778915 0.057490066 -0.06198287 -0.039031938 -0.064053915 0.014984793 -0.044533018 -0.013006945 -0.12124437 0.12295073 0.265723 0.25520885 0.16613586 -0.02113906 -0.10658938 -0.18091586 -0.11040611 -0.08314807 -0.17516452 -0.032545257 0.00996968 0.060347904 0.014774428 -0.09939256 0.051148634 0.039885577 -0.046649862 -0.036775537 -0.03914642 -0.0917364 0.10575726 0.1269106 0.21487652 0.040505536 -0.25292563 -0.013024702 -0.07694144 0.15967645 0.19712283 0.033707306 -0.12652987 -0.08815222 -0.008447357 -0.23213668 0.056270324 0.057396833 -0.25355017 -0.26939046 -0.13775389 0.09735745 0.0027545216 0.31011462 0.16821778 -0.001058025 0.055666585 0.29436055 0.2880616 -0.0038203367 -0.4030421 -0.45238367 -0.32336375 0.070721075 0.20668483 0.4270655 -0.0565742 0.085869744 -0.060235377 -0.110085204 -0.024032624 0.17707996 -0.0314198 0.021820106 -0.006301305 0.04955272 -0.14310324 0.042376954 -0.1124157 -0.031312358 0.113373555 0.09083539 0.09924987 -0.11164063 0.061166298 -0.085680425 0.041808315 0.027356368 0.05600409 -0.12180418 0.030142212 0.016937874 -0.046977513 -0.3174999 -0.29964387 -0.009803122 0.005776503 0.17931156 0.22979319 0.22005944 0.13486588 -0.04396199 -0.005339902 -0.04530585 0.086638846 0.19213657 0.12112419 0.15568484 -0.12161286 0.084239066 0.072692625 0.079505414 0.040206082 0.027110774 -0.092014655 -0.17145438 -0.052442923 -0.0034297537 -0.051202156 0.012935606 -0.15390794 -0.0022231408 0.051120542 -0.077034615 0.06715006 0.1359423 0.024389414 0.022665035 0.0823973 -0.0782554 -0.05431472 0.07178145 0.19812626 0.2831624 0.4643353 0.25101122 0.30403295 0.19194953 -0.050638407 -0.123724386 -0.047363788 -0.056597665 0.089496054 0.06627354 -0.04853361 -0.10754327 -0.13043392 -0.06963824 -0.07031872 0.12596339 -0.10869184 0.06289245 0.020683495 -0.18473883 -0.16676922 -0.15117243 0.10090533 0.0788036 -0.097419254 0.11768249 0.084327005 0.09765084 -0.03543809 -0.15327375 0.03983917 0.17803007 0.09306514 -0.022974743 -0.088326074 -0.12887783 -0.23377676 -0.29206273 -0.25307342 -0.08422179 -0.05431217 0.032358747 0.10196492 -0.15756351 0.014683928 -0.079694375 -0.13878348 0.10238701 0.022296825 -0.08509337 0.021328311 0.02518461 0.053119466 -0.11961654 0.01678409 -0.084100135 0.06258093 0.0633235 -0.040818464 0.05743032 -0.11310892 -0.0634187 -0.06297124 -0.079773895 0.11823509 0.098914824 0.24806984 0.24357946 -0.03676651 -0.17605832 -0.41311678 -0.36828208 -0.07486686 0.41492763 0.50157344 0.36079767 0.007647802 0.010844549 0.06359936 0.055515893 -0.058683142 -0.03752007 -0.015976189 0.022982001 0.049785435 0.034222245 0.080885 -0.016602816 -0.014469517 -0.021463327 -0.105329484 0.011442803 -0.052838303 0.108129226 -0.03368475 0.08041957 0.017346822 -0.017223254 -0.06260259 0.08360398 -0.0029948724 -0.0050681923 -0.038344007 0.2442857 0.41972712 0.26833057 -0.087826006 -0.52570856 -0.61272675 -0.23364203 -0.033913597 0.60293734 -0.0054443837 0.09025411 -0.12151436 0.11698121 0.0721397 -0.11008336 -0.039314892 0.09397646 -0.089683704 -0.068383984 0.11288321 0.047872223 -0.02167508 0.045771927 0.07901484 0.062740706 -0.15349993 -0.07490201 -0.03638156 0.06504681 -0.074536964 -0.025782816 0.09430864 -0.1002583 0.028088136 -0.0053678425 0.044301394 -0.16236837 -0.24818602 -0.17819007 0.082005806 0.10690692 0.15157403 0.21619092 0.31134772 0.12432737 -0.049015675 -0.06543364 -0.11088236 0.009284904 0.019521516 0.012013157 0.047679357 0.027431918 0.057707135 -0.16990212 -0.21613757 -0.13761076 -0.01956461 0.119608164 0.23053843 -0.031521853 0.042651437 -0.108066715 -0.12925881 0.103841856 0.108486526 0.08823609 0.1379425 0.013451239 0.10002779 -0.012302227 0.038048156 0.19249614 0.06679505 -0.10226758 -0.05667471 -0.1489037 -0.010985827 -0.040759377 0.07519877 0.20392746 -0.09893979 0.016398123 -0.078075334 0.22826801 -0.17129965 0.07796537 -0.02623794 0.16247384 -0.050550956 0.17108332 0.19510217 0.21182327 0.1472735 0.105553806 -0.16935773 -0.27254587 -0.28022027 -0.12700011 0.051103137 -0.16630776 0.08626535 -0.03833371 0.08700002 0.0062113767 0.03364606 0.026891753 0.018942794 -0.03133716 0.09209712 0.15446839 0.115136616 0.21397205 0.1449977 0.2408996 0.40312982 0.36404502 -0.20194781 -0.14689928 0.005091817 0.11123347 0.058129787 0.063331 -0.05006083 -0.076608315 -0.06850655 -0.15543027 -0.2366054 -0.0053227576 -0.03300296 -0.17809615 -0.06882345 0.061502162 0.14588842 -0.087552026 -0.060345307 0.044452965 -0.067797825 0.055755064 0.016037839 -0.08509408 0.07093197 -0.0698162 -0.008399998 0.027538484 0.11570559 0.22259752 0.31328025 0.3191226 0.22114272 0.2279565 -0.10634468 -0.33518013 0.16303433 0.20368285 -0.0607135 0.087128036 0.013836629 -0.05448889 0.18379922 -0.079729155 0.0833324 -0.08252305 -0.10340254 -0.09896837 0.05929794 0.043378618 0.16804767 0.18060535 -0.013356538 0.040391915 -0.16854219 0.035410386 -0.06460928 0.078170836 0.048486266 -0.13196723 0.06738193 -0.123567656 0.11548379 -0.13423373 -0.24240853 -0.10004326 -0.14529307 -0.26843068 -0.07796003 0.040563073 0.06739602 0.32005012 -0.11506643 -0.006936454 0.06504434 0.15788904 0.13996522 0.071894646 -0.0046937475 -0.11032471 -0.11830128 0.021595623 -0.14721811 -0.16686906 0.02012064 -0.06975955 -0.14060844 -0.039082263 0.114800684 -0.030943867 0.110663824 -0.04861757 -0.059883613 0.021650491 0.050439008 0.08472855 0.1348058 -0.19775389 0.011511417 -0.10032834 0.060738616 0.1630908 0.034650132 0.013185839 -0.06226925 -0.09861978 -0.05759144 -0.1389846 0.07514454 -0.046890568 0.07091604 0.20494494 0.16734205 0.10357013 0.10591721 -0.044408076 0.15276372 -0.07440622 -0.0471996 0.018119238 -0.15770029 -0.06896214 -0.100740716 -0.017533928 0.19285496 0.21103437 0.117079236 0.100998506 0.18158178 0.11132792 0.0724857 0.06880352 -0.031478703 0.0049749054 0.076788805 -0.01694493 0.109221846 0.15206875 0.00680329 -0.02534009 -0.101543486 -0.027952539 -0.16884592 -0.12498976 -0.07013864 -0.26366568 -0.073638365 0.06322483 0.27540055 0.050067533 0.25587758 0.04400191 0.38351342 -0.08387244 -0.11808033 0.08361219 -0.06055446 0.073214054 -0.09223421 0.062930524 0.058002014 0.018943235 -0.103155546 -0.0028416638 0.0032185384 -0.09540862 -0.10874059 -0.10773096 -0.022375595 -0.059386805 -0.014030034 -0.3660653 -0.18256181 -0.058125343 -0.18496038 0.051217105 0.094834656 0.30155402 0.33241287 0.0594167 -0.07979189 -0.09867719 -0.029691735 -0.024997052 0.0008731587 0.07080862 -0.051639732 0.03680176 -0.057373017 0.23844898 0.16794617 0.033823617 0.032376807 -0.16824979 -0.036441352 0.028656496 -0.07193541 0.08768311 0.13141431 0.012984697 0.14845736 -0.042794354 -0.054102737 -0.10566623 -0.12885077 -0.06214416 0.017909633 0.10618005 0.1837843 -0.062475093 -0.3099445 -0.1734688 -0.24700071 0.05645613 0.2788609 0.34139344 -0.052236896 -0.07542388 -0.15558405 -0.09046383 0.08114573 0.11926069 0.037159577 0.14492308 -0.10602795 -0.09386677 -0.11987179 0.07755382 -0.123047665 0.025177406 0.044946227 0.046059247 0.15059981 0.18809651 0.06878515 -0.14712909 -0.03730695 -0.042228516 -0.044950992 -0.06370158 0.018248646 -0.018368874 0.21798319 -0.17646617 -0.19886252 -0.11364574 0.078439176 0.044375345 0.10067268 -0.00010925982 -0.031846102 -0.28952733 0.073959686 0.102330714 0.09680684 0.111978225 0.029574076 -0.05893492 -0.08146596 -0.1508222 -0.15486702 -0.09296444 -0.056302533 0.11888559 -0.16176796 0.075021796 -0.12555476 -0.16739033 0.03790521 -0.23134896 0.02952558 -0.019461406 0.18270193 0.18084942 0.24059524 0.14942414 0.059691116 0.13868871 0.005471456 0.364301 0.41831884 0.41275883 0.21200715 0.33950478 0.22099575 0.13574372 0.33223563 0.42235088 0.08509107 -0.046770375 0.10767371 -0.06301473 -0.09105364 -0.050505497 -0.024476673 -0.05050704 -0.0032930144 0.113010325 -0.054733716 0.07810914 -0.10996795 0.0073399334 0.06869945 0.061788876 0.014658474 0.120809294 0.14662619 0.112856984 0.011092158 -0.06368722 -0.075648524 -0.04904513 0.0175607 0.030785495 -0.026259694 0.17518844 -0.39395276 -0.6808241 -0.67096 -0.27120963 0.28288922 0.57171154 0.45191944 0.108397394 0.069349885 -0.004992956 -0.08562056 0.05582536 -0.05881767 0.120320566 -0.1400419 0.04123604 0.03184282 -0.12692162 -0.039412457 0.08147343 0.09335287 0.01141308 -0.08557178 0.076788574 -0.09758573 0.121395394 -0.063490316 -0.008697176 -0.04222286 0.062968306 -0.053030938 0.09659652 0.018799685 -0.012275358 0.012242115 -0.23628359 -0.47912744 -0.24170479 -0.114318594 0.4810239 0.44361573 0.28484574 0.028059738 -0.48655763 0.0030356683 0.048499253 -0.054109227 -0.0053815297 0.08962825 -0.018840982 0.047815148 0.009744278 -0.11026759 0.047513228 0.025500672 0.07113423 -0.006059566 -0.0752503 -0.032790646 -0.060936198 -0.0011961475 0.06771863 0.0015388525 0.10246117 -0.0584087 -0.05144659 -0.0639825 0.063434556 -0.071581066 0.05084369 -0.007586084 -0.37145942 -0.26741338 -0.23150127 -0.108098924 -0.22796738 -0.15825169 -0.31670642 -0.08896813 -0.3641528 0.015415783 -0.37693644 -0.22292507 -0.13827188 -0.012769804 -0.43242756 -0.10305942 -0.32818115 0.18313453 -0.024678146 -0.20825046 -0.16241978 0.019130493 -0.0056173657 -0.44610646 -0.22942443 -0.5344376 0.030974409 -0.17285115 0.0030734735 -0.20626685 0.0914452 0.07139779 0.7351425 0.9687445 0.75990963 0.98288625 0.79844254 0.71813667 0.6397741 0.86152667 0.8437738 0.61817706 0.66745186 0.9251883 1.1636039 1.2581067 0.80627614 0.70293975 0.85934216 1.4150661 1.0775744 0.790446 0.8335577 0.61066294 0.98093903 0.6969075 0.7876713 0.99328583 0.7122704 0.9356637 0.62182844 0.95361704 1.1061705 1.2951798 0.25690487 0.24051876 0.16802545 0.44523484 -0.11745349 0.04487993 0.08985477 0.4198429 0.18934865 0.044867355 0.16380996 0.11794257 0.14508447 0.33783913 0.5487238 0.07222196 -0.12082303 0.36049435 0.4042361 0.18351762 -0.12980768 0.12826118 0.25678563 0.061664235 0.18401392 0.18418191 0.18863444 0.2892227 -0.16511165 0.11786045 0.42495525 0.400827 0.15834036 0.180976 0.14978895 0.43918726 0.26821274 0.15391725 0.2045842 0.29626492 0.30072007 0.54864913 0.38287145 0.05618602 0.06382644 0.20493276 0.20239249 0.53829485 0.21866734 0.4185479 0.26362786 0.28286305 0.07404227 0.5581443 0.45222116 0.18992963 0.34331268 0.1372224 0.39716926 0.14574689 0.5032317 0.61219543 0.5639513 0.28782663 0.11223167 0.0871464 0.0710513 0.75299436 0.32265884 0.09482258 0.13787578 0.29661322 0.3083829 0.7758714 0.489566 0.034993522 0.042333025 0.17646891 0.24067594 0.88161194 0.32094955 0.44679365 0.2814123 0.3240612 0.040321182 0.82667017 0.61782116 0.24071339 0.32790306 0.12080079 0.4392217 0.10894165 0.41068116 1.5926819 1.1351163 0.27823383 0.059376705 -0.027341703 -0.14261323 -0.030168101 0.08015523 -0.011593552 0.06981225 0.04695538 -0.02079504 -0.12825407 0.00835234 0.04290243 0.007250931 0.006214855 0.00056277186 0.048433658 -0.008444797 0.078606166 -0.0993735 -0.11372644 -0.058614705 -0.22427382 -0.16998109 -0.09886186 0.042892125 -0.06344234 -0.13338666 0.04296632 0.022328138 0.09934147 -0.020562181 0.0819893 -0.03435748 0.134255 -0.051222272 -0.020399656 0.111452565 0.18938461 0.113653846 0.21713975 0.14749436 0.06981615 0.16298628 0.21814288 0.020049237 -0.012590019 -0.0912881 -0.086558335 -0.009924117 0.004286682 0.008034564 -0.15143175 -0.04584933 -0.090636425 -0.008679351 -0.2180056 -0.24605069 -0.19760889 -0.15836298 -0.13291039 -0.19997582 -0.06403523 0.04139346 -0.06545123 -0.04013194 -0.08329572 0.07312281 0.0619406 0.11449936 -0.051620997 -0.15197095 -0.16702865 0.05109419 0.17844574 0.025580846 0.07344493 -0.043842185 0.06864312 0.10593363 0.15040779 0.030191267 -0.048777435 0.012073372 0.063255765 0.00082601694 -0.046892222 0.081044555 0.14254104 0.10203607 0.06759566 0.0075685326 0.11895645 0.13113357 0.11831414 0.03973844 0.10351713 0.069909014 0.04490503 0.026921036 0.07160077 0.07330081 -0.009667861 0.030835811 -0.01994759 0.060213182 -0.083288975 -0.13417159 -0.028574158 -0.12149112 -0.029039942 -0.06375251 -0.1025708 -0.028445732 -0.1257894 0.08501237 0.11519943 0.21948434 0.049422298 0.03829886 -0.028670367 -0.04816372 0.019954756 0.0015412945 0.014324943 -0.05810242 0.010157858 -0.105870046 0.020335756 0.05649441 -0.030182572 -0.066835135 -0.16496134 -0.085638754 -0.06848015 -0.07516194 -0.03173071 -0.034331903 -0.05938792 -0.11354022 0.009430062 -0.07763817 -0.105822094 -0.11146317 -0.09612224 -0.047726598 0.09511947 0.028419444 0.083216146 0.082848884 0.19363652 0.24382256 0.052631762 0.17756426 0.042998426 -0.0024691492 -0.051034864 -0.16570376 -0.01453987 0.0939093 -0.033937506 0.055440046 0.10648007 0.0237866 -0.028902128 0.042896207 -0.029040137 0.044136506 0.053406786 -0.017313093 0.05990104 0.04268942 -0.03674112 -0.032254755 -0.03305939 -0.15051064 -0.22442368 -0.19072641 -0.15021518 0.040944614 0.006061994 -0.12364624 -0.060084302 0.08074173 -0.11256975 -0.29134724 0.0057794987 0.009521008 -0.0060841986 0.014925093 0.096487954 -0.030035203 0.059418578 -0.061488636 -0.008203385 0.07182609 0.023099745 0.10929975 0.011462609 0.02756828 0.009529108 0.07329586 -0.017734598 -0.02018388 0.044413086 -0.045390703 0.061319306 0.12271375 -0.08849754 -0.05488647 -0.041919418 -0.08221526 -0.08639939 -0.1498604 0.03498557 0.029501883 -0.09864717 -0.15857045 -0.15620732 -0.23803683 -0.22273652 -0.2906834 -0.21318424 -0.17759141 -0.080586754 -0.03958588 -0.11614524 0.061772685 -0.008315835 -0.16369364 -0.16418475 0.0010067973 0.07570835 -2.4061825e-05 -0.11797472 0.03750052 0.062162153 -0.045292836 -0.13539627 0.037857927 0.18126464 0.10485613 -0.05346845 0.009356092 0.07239513 0.061421145 -0.09904645 -0.0051886765 0.0045961025 0.14132637 0.010415818 0.091887705 0.11052717 -0.36846754 -0.5048748 -0.47332242 -0.49592113 -0.4763039 -0.40607157 -0.48431936 -0.30188492 -0.3237459 -0.04951521 -0.0501134 -0.07229753 0.015053971 -0.11098392 -0.124497294 -0.03852786 0.03879495 -0.009064475 0.012963786 0.005302113 -0.03524988 0.00876961 0.074069485 0.15908027 0.022330021 -0.006041467 0.11224607 0.036550865 0.12967132 0.015503134 -0.0432403 0.093206175 0.14843082 0.009137504 -0.017687151 -0.01463349 -0.17531249 -0.14209853 0.08117046 -0.058587905 -0.01939155 0.13614708 0.07990691 -0.10287864 -0.0027604657 0.012598648 -0.006848155 0.081131585 -0.046401687 -0.047254182 -0.026760543 -0.0021454014 -0.08459473 -0.039680578 0.029207764 -0.09171679 0.060121406 0.0028029322 0.0023474048 -0.0074645174 0.06656104 0.065113135 -0.056891613 -0.49946856 0.10207425 -0.24370039 -0.19588245 -0.018483905 0.11157269 0.06487078 -0.42098582 0.098093934 0.10151659 -0.059148375 0.16802296 0.15662225 0.021114217 -0.03482268 -0.13269652 -0.026581634 0.06299175 0.056213 0.06656204 -0.097486064 -0.008133433 -0.01921418 0.09341741 -0.06849284 0.050580192 -0.03542846 -0.08295338 -0.008000989 -0.07778114 0.03367071 -0.1224027 -0.013251295 0.020519316 -0.07095897 0.024382893 -0.11397287 0.058795452 0.14604788 -0.027166028 -0.048448835 -0.083015725 0.086968526 0.13328698 0.18457368 -0.055812422 -0.093849376 0.10321148 0.039428156 -0.030391226 -0.124381505 0.18124786 0.08239233 0.07307748 -0.03825812 -0.026594024 0.080313355 -0.037716888 -0.013641949 0.0054430035 -0.011692742 0.07288358 -0.05194919 -0.14901543 -0.12575239 -0.10113203 -0.0462206 -0.059101168 0.014143361 0.0692596 0.07097753 -0.03546275 -0.05058077 0.01676978 0.012971738 0.08898489 -0.07292687 0.018168561 0.061367728 0.04650776 0.012004554 0.04461459 -0.03458816 0.14395465 0.12368193 -0.03515947 -0.08385881 -0.008549375 0.1671148 0.031388324 0.1449563 -0.006811268 0.083037905 -0.64564043 0.18876077 0.08569075 0.06499026 -0.43780163 -0.083075374 -0.036517456 0.07877323 0.20491166 0.0030627958 -0.21697484 -0.09410192 0.012589749 0.097796895 0.008646789 0.018786835 -0.11057934 -0.048551768 -0.030995302 0.013693344 -0.027287006 -0.15666224 0.07535139 -0.022337079 0.009276371 0.19924827 0.37934875 -0.19474845 0.0075389845 -0.004051008 0.027227238 -0.09608544 -0.0057468573 0.4399676 0.04839597 -0.119576745 -0.537932 0.2203564 0.19856516 -0.21720123 -0.41218454 0.0817522 0.16179948 -0.17970239 -0.01947244 -0.4115183 0.14307354 -0.24145795 0.23043723 -0.48106426 0.08063291 -0.11052685 -0.0015677252 0.08785545 0.12826696 -0.17992586 -0.14625014 -0.05102482 0.04994966 0.0019727147 0.084869966 -0.046541866 0.05339356 -0.034322206 -0.007892343 0.087117426 0.012461972 -0.13462752 -0.023842113 -0.082139306 -0.095414504 0.042678576 0.0079903705 -0.0511241 0.006738984 -0.017211592 0.105373725 0.04172962 -0.29171377 0.10904383 -0.015818793 0.021444654 -0.392236 0.17173992 0.08564961 0.009271519 -0.04051277 -0.26842403 -0.15512896 0.065570824 0.030274484 -0.114359476 -0.06459478 0.099797614 0.06925446 -0.14350964 0.16824867 0.019146465 -0.02871695 -0.052396756 0.018287586 0.054065052 0.11226162 -0.06934873 -0.029442348 0.07607582 -0.18390504 -0.07972599 -0.036259536 0.055923637 -0.13543496 0.2620757 -0.029606234 0.06630638 0.08606592 -0.0880533 0.040942356 0.09169745 0.13195093 0.12971708 -0.12004485 -0.12656704 -0.11843747 0.025394017 -0.013950184 0.051724203 -0.3302298 0.17498861 0.10277593 -0.18486981 -0.031964984 0.048901353 -0.022792505 0.012322028 0.11371331 -0.036275964 0.100792594 0.07456757 -0.010882463 0.03044693 -0.049340684 -0.035322834 -0.0075984406 -0.027887058 -0.08873232 -0.03993348 0.03674599 -0.038696975 -0.101249695 -0.11119108 0.11640766 -0.0108189285 -0.38979736 -0.22576681 -0.14663427 0.08137258 -0.45061702 -0.35273182 -0.035307378 0.18735398 0.26811773 -0.43986768 -0.10015287 0.0021843305 0.3090865 -0.22643353 -0.22018746 -0.33268377 -0.100840665 -0.12290715 0.026863893 0.023440292 -0.049310848 -0.05229439 0.14421582 -0.06507629 0.08962816 0.12999818 -0.009467025 -0.08566615 0.15972635 0.10825956 0.104828484 -0.022504102 -0.06725713 -0.031788137 0.011512614 0.08570923 -0.04657724 -0.031984564 0.116335705 -0.07610933 -0.0047694216 -0.16202617 0.00873566 -0.12715189 -0.07919582 0.024666036 -0.45317742 -0.34193462 0.035155185 -0.31721616 -0.44501796 0.024330618 0.08664371 -0.025749244 -0.0058845542 0.030969087 -0.1007195 -0.275614 0.03348929 0.050475948 -0.075263105 -0.0991838 0.030715145 -0.05954835 -0.11025085 -0.13841593 -0.13914533 0.00050942047 -0.09741648 0.09014981 0.005415774 -0.14452145 0.056604356 -0.025342388 0.034653533 0.0031374926 -0.12606196 0.05137013 0.03938284 -0.13038737 0.11604563 0.121686086 -0.055447634 -0.09164345 -0.070157535 -0.1269864 -0.0780892 -0.29256225 -0.15002957 -0.05134731 0.10316153 0.032047987 -0.23836529 -0.13729905 -0.027357878 -0.12008109 -0.12302307 0.05086919 0.06618515 -0.042128924 0.012810617 -0.026557328 -0.07055622 -0.09822589 0.05970292 0.04674847 -0.16545561 -0.029907545 -0.040713858 -0.006507863 0.064483106 0.015160407 0.034124088 -0.08195018 0.15182056 0.16276345 -0.040047593 -0.13292481 0.040872987 -0.06261271 -0.08466988 0.10564804 0.0744773 -0.02316526 -0.17296953 -0.060251888 -0.030670438 -0.03143418 -0.069871515 0.17193843 0.07282591 0.0055634333 0.14194085 -0.016067581 0.048310988 -0.08228846 0.067496985 -0.38457373 -0.2607402 -0.12653129 -0.047567952 0.25481966 0.10138032 0.101908 -0.013029528 0.12524153 0.018297624 -0.09145157 -0.10069929 0.16094515 -0.12524737 0.03309013 -0.038024034 -0.121460594 -0.09114434 -0.001754262 -0.1023188 -0.036697365 -0.06705666 -0.069400884 0.13059565 0.1787521 -0.03357707 0.060613137 0.008330046 -0.00392163 0.043156914 0.020056708 -0.08222641 0.20540522 -0.36794025 -0.3610603 0.18029027 -0.14410791 0.045007043 -0.47315925 0.23274972 0.15168849 -0.20042257 0.16575158 -0.07390765 0.0724516 -0.23052381 -0.06439707 -0.077716686 -0.0241758 -0.18162626 0.071500294 -0.013550608 -0.008611068 0.005324995 -0.093624175 -0.16193415 -0.11211248 0.1991762 -0.05863499 0.26917657 0.121929735 -0.17662244 0.11907086 0.11345535 0.0035549833 0.17456861 -0.03363441 -0.05255807 -0.06210543 -0.017546402 -0.12693709 0.02682609 -0.07522172 -0.11543642 0.0021631208 -0.036378037 0.027527653 -0.0459961 0.02340245 -0.12045917 -0.33469176 0.07194939 0.09034686 -0.023618419 -0.11157582 0.23372811 0.14739522 -0.1004353 -0.09869866 -0.13061906 -0.042665437 -0.058809604 0.08034777 -0.11085515 -0.046756163 -0.0916629 0.019646771 0.23740193 -0.05553789 -0.09811101 0.08592973 0.0482314 -0.1170176 -0.017117249 -0.19037476 -0.024056118 0.2039937 -0.078494966 -0.1738916 0.08864314 -0.029665267 -0.042711396 0.045680672 0.05495769 0.07318976 -0.15259671 -0.04268715 0.016287431 0.035818417 -0.11603677 -0.025436187 -0.01685734 -0.063593805 -0.13643822 0.010815478 0.19251885 -0.076121844 -0.15088816 0.013116843 0.061517514 0.24906345 0.041187808 -0.06649068 -0.043286186 0.04628694 0.028667457 -0.071119145 -0.017063519 0.0124454945 0.020515159 0.018144637 0.21032365 -0.11217799 -0.25652188 -0.16294499 -0.00252237 -0.078181185 0.020370074 0.012793129 -0.17130966 -0.33840752 -0.052826647 -0.03288836 -0.0733203 -0.16602972 -0.5070802 -0.00074641564 0.1151045 0.18612626 -0.09240545 -0.15886816 -0.039303258 0.1045099 -0.13833909 -0.44616792 -0.1714085 0.14090417 0.008486236 -0.095228374 -0.10436496 -0.069550306 -0.07285645 -0.048987377 -0.012379199 0.033676136 -0.033353053 0.032331154 0.0058943653 0.11985421 0.064572036 0.15895343 0.19009173 0.10102671 -0.061583374 0.0482269 -0.18150553 0.19578235 0.07342063 -0.254436 -0.14732924 -0.018316839 -0.11986819 -0.14685611 -0.12970906 0.05830905 0.0030486775 0.044388503 -0.18602881 -0.1796548 0.0023000645 0.18004514 0.011319699 -0.12314078 0.059357062 0.08810633 0.0642378 0.05738184 0.01721169 -0.025058981 0.15104799 0.21537583 0.18711855 0.039052743 0.11807461 -0.11231043 -0.17088902 -0.12153337 -0.020455541 -0.009369776 -0.047706924 0.0008275576 0.19035013 0.102579765 0.15943007 0.04497434 0.053129658 0.15906006 0.1957832 0.09123548 0.20635629 0.0474754 -0.08662266 -0.040622413 0.13614434 8.97616e-06 -0.20621699 -0.0033200914 0.13914044 0.07236488 -0.021303326 -0.1826784 -0.10359609 -0.18025266 0.018556824 -0.062330812 -0.15643649 -0.076305605 -0.077113725 -0.014880055 0.00036278504 0.05118537 -0.05092157 -0.06785897 -0.04997013 -0.07514822 0.063032985 0.116827615 -0.15125245 -0.13121445 0.13155392 0.022899386 -0.05026505 0.0450746 0.16197467 -0.02493553 0.0045506 0.028936356 0.1432244 -0.3030514 -0.16394398 -0.0064142146 0.18899171 0.16301785 -0.1510909 0.08748535 0.06532485 -0.054560553 0.04958752 -0.09034314 -0.152603 -0.2550304 0.010419209 -0.053621702 0.12073194 -0.24043871 -0.09309211 -0.25180084 -0.138031 -0.049633212 -0.14892922 -0.0016159713 0.13875142 -0.24174467 -0.16143262 0.039286725 0.06374751 -0.017852418 -0.000109478075 -0.026507575 0.07451348 0.09179527 0.06323176 0.038689926 -0.09193244 -0.039300546 -0.1301013 -0.123387896 -0.13835435 -0.10444215 -0.17024197 -0.009037739 0.0020018294 0.070423014 0.10869259 0.07762982 -0.08623732 -0.019257106 0.20476991 0.16758548 0.05133163 -0.18805687 0.12289165 -0.08000614 -0.12265984 -0.053018034 0.020234596 0.13779733 -0.06220001 0.17764391 -0.11204006 -0.15417664 -0.06393436 -0.18566427 -0.098659255 -0.28637373 0.03322019 0.047589954 -0.2879014 -0.06805353 0.16100104 0.17263044 -0.03188155 -0.1026354 -0.13645752 -0.00023579242 -0.0038125068 0.08051328 0.06185776 -0.034399357 0.04335237 -0.064440586 -0.15851733 -0.039655276 -0.076910526 -0.103650466 -0.16781 -0.03662559 -0.12265817 -0.11517434 -0.07389991 -0.029071786 -0.10260165 -0.07779211 0.03700941 0.063737415 -0.08942626 -0.17853652 -0.06288075 -0.035374817 -0.0384232 -0.06630566 -0.009041721 0.05199162 0.14518256 -0.026661266 -0.06590233 -0.100362495 -0.08658934 -0.06370043 -0.05066062 -0.045027792 0.04778536 0.0863266 -0.09830473 0.0143610835 -0.019298783 0.08349263 -0.02664681 0.07586116 0.020659812 -0.016818894 -0.060952984 -0.06917256 -0.14637776 0.13007535 0.16637783 0.12354395 0.13718696 0.22081505 0.2173609 0.17232783 -0.11164811 0.08805089 0.07568919 0.013211443 0.08664696 -0.026037682 0.05225277 -0.074943975 -0.0009795339 -0.04334202 -0.10301439 -0.056303844 -0.119417705 -0.015873397 0.03590898 0.028669605 0.02461749 -0.03136698 -0.08555243 -0.04372255 -0.036006726 -0.082957275 -0.024433944 -0.112729155 -0.11362487 0.019834979 -0.017788397 0.014424922 -0.04329937 0.025365341 0.14162599 0.045927405 0.032953046 -0.020268727 0.010010069 0.2078279 -0.17551391 0.10371394 -0.021441933 0.038825605 -0.1393976 -0.06742046 -0.17195071 0.016498148 0.11340463 -0.36647955 0.0032851761 0.039157502 -0.14413242 -0.15732305 -0.023223732 0.018227141 -0.0941715 0.06249483 0.054472454 0.079644606 -0.117623694 -0.008729202 -0.03295042 -0.048367094 -0.09521377 -0.023612315 -0.13865063 -0.20909007 -0.015826406 -0.01148986 0.09179064 0.017414305 0.052850883 -0.031176286 0.008649142 0.08480457 -0.22297858 0.17749487 0.07212129 0.030385934 0.25029713 0.059995808 -0.20849988 -0.04416564 -0.0072148857 -0.25127292 -0.21826085 -0.18573394 -0.23833913 -0.104474194 -0.49393374 0.1318478 -0.18943554 -0.05729673 -0.05894576 0.017377881 -0.042384136 -0.025448225 0.02760652 -0.04402298 -0.03421615 -0.03061015 -0.0825495 0.041378025 0.07494571 0.26495504 -0.14279175 -0.025085835 0.11255554 -0.007228825 -0.11527582 -0.124877736 -0.030726822 -0.03949311 -0.002934699 0.07117241 0.00841989 0.110176004 -0.14763272 -0.061944492 -0.32947436 0.0018551842 -0.1606175 -0.24515273 -0.12829275 -0.045035474 0.0395889 -0.1499388 -0.09302017 -0.12630464 0.14281675 0.03565345 -0.07276375 -0.21250927 -0.013206042 -0.0015478592 -0.062488098 0.0742418 -0.003806196 0.23549804 0.08269859 0.002333385 0.037241057 0.16526172 0.026122734 -0.16773596 0.09710653 0.059682965 -0.26487097 0.033167403 -0.1601828 -0.36974695 -0.25609103 -0.10382271 -0.13694291 -0.042887777 0.1832015 0.024922889 -0.061363634 -0.03716746 0.104151025 -0.05792744 0.10161833 -0.054697502 0.14737447 0.12697418 0.064128496 0.007981611 0.11961745 -0.005865045 -0.04346505 -0.10188486 -0.055617485 0.14096762 -0.04245986 0.03489442 -0.15091163 0.077766344 -0.3252651 -0.099218436 0.06029277 -0.06857223 -0.13441013 0.14996955 -0.093998305 0.13591242 -0.04629319 -0.11752526 -0.1268573 0.008977855 0.02909523 -0.06749996 0.0061111962 0.0050045 0.17204863 -0.027512195 0.11752898 -0.10196969 0.073879495 0.046183616 -0.01190942 -0.06685212 0.0668612 0.17329007 0.05161633 -0.0023817648 0.14861597 -0.07092803 -0.217402 0.13050075 -0.07712854 0.026112773 -0.08589671 0.038173094 -0.19021599 -0.053247552 0.014302608 0.02504933 0.16285639 0.17316897 0.07344064 -0.2920015 -0.13821386 -0.2752948 -0.19140728 -0.50436354 -0.24177326 0.11111392 -0.2527133 -0.047350045 0.036962565 0.16400464 0.06884694 -0.09911161 0.10618598 0.13423356 -0.08746525 -0.05968538 0.13904326 0.14869323 -0.064023435 0.0013156394 0.112850524 -0.108168475 0.04804837 0.13223706 0.07058945 0.12043195 0.08459502 0.19557665 0.024781018 -0.07206552 0.040518474 -0.092705354 -0.017130723 -0.034915987 -0.06583018 -0.12297116 -0.042218674 -0.038757067 -0.127868 0.054108392 0.051149566 -0.18219298 0.076382294 -0.062671006 0.056233626 -0.013883959 0.10786293 0.002049924 0.20648699 -0.022809079 -0.14796612 0.025938997 -0.08154067 -0.1333231 0.07214336 -0.09450942 0.085549414 0.06386093 -0.026155207 0.08495234 0.071001954 -0.3163022 -0.52351475 -0.06951281 -0.14537773 -0.07043019 -0.070397966 0.12435446 0.054596227 -0.027773812 -0.124718934 -0.027572032 0.071414486 0.22776957 0.2232259 0.014819885 -0.11372046 0.10743916 0.025291143 -0.15478247 -0.062157396 -0.04890313 -0.07612962 0.05416631 -0.0032511312 -0.008339078 0.0011037753 0.04577989 -0.010679121 0.16854148 -0.009920609 0.016232185 0.09636155 0.03923896 0.037478607 -0.036893386 -0.12427806 0.072582066 -0.0037673363 -0.035714295 0.013204436 0.04641175 0.11708658 0.0531365 -0.108934976 -0.005657639 -0.039771426 -0.20888549 -0.29087207 -0.3733944 -0.28309798 -0.12208789 0.008536309 -0.11449056 -0.085156396 0.0461352 0.10613202 -0.1698411 -0.01762601 -0.14015526 -0.28845587 -0.09320147 0.111244634 -0.07117267 -0.098474704 -0.07022184 -0.09413884 -0.047239296 0.10230526 -0.01905156 -0.012278896 0.113031454 0.064510904 -0.15556616 -0.20833729 -0.23454751 -0.27182844 -0.16766581 -0.10004978 -0.091459736 -0.18302827 -0.35044214 -0.053951878 -0.29039702 0.057921838 -0.08109756 -0.049061645 0.10416726 -0.19026385 -0.10153553 -0.00077214214 -0.14713825 -0.08368137 0.08939004 -0.00037409022 -0.0891613 -0.08114566 -0.029907923 -0.120034456 -0.0077625215 0.16810462 0.04836591 0.07886909 0.2421885 0.28819445 0.1936309 0.11902475 0.030379757 0.20135973 0.0044852044 -0.11877372 -0.06371116 0.0908641 -0.059515756 -0.03016301 -0.23060794 -0.019367231 0.06267407 0.11650059 -0.074234016 -0.09701399 0.055594265 0.16859835 -0.08204822 -0.07177546 0.011926823 -0.118677504 0.30865622 0.17415142 0.02353891 -0.060542703 -0.108694606 0.0060587935 -0.0022322184 0.037448235 0.14238422 0.060565688 0.0914356 -0.06629623 -0.019305648 -0.095259644 -0.17795916 -0.15315625 -0.06780832 0.016146846 -0.08838354 0.015453167 -0.0818632 0.00048058282 -0.11800992 0.0258313 -0.048800983 -0.048246186 0.14667737 0.079022214 0.064506255 0.020935902 -0.09776273 -0.23417395 -0.15873928 -0.076081574 0.053404707 0.15965937 -0.101539776 -0.07276808 -0.23711717 -0.112797655 0.118918516 0.088819265 0.015235263 0.26067755 0.1863296 0.0046987357 0.15346523 0.123808086 0.21308735 0.32860786 0.0060410793 -0.104244664 0.09334872 -0.009002969 -0.08693049 0.035326075 -0.070847176 -0.015432327 0.0008170569 -0.07087078 0.09716718 0.09816925 -0.057462618 -0.18304725 -0.19326745 0.0030978136 -0.08672347 -0.024593044 0.10908565 -0.0027180703 -0.011033744 -0.045592997 0.005639678 -0.06444647 0.05345853 -0.06495257 -0.13700736 -0.06450317 -0.09167146 0.17241974 0.18001342 0.020258844 0.055828966 -0.01610182 0.16946916 0.093437076 0.100113064 0.11200102 0.04128526 0.05468358 -0.14272013 -0.10720759 -0.1895252 0.0047862036 0.046595346 -0.2152284 0.005962915 0.0017206948 -0.15316966 -0.12077709 -0.11110483 -0.05734446 0.09751671 0.044373043 -0.0038230123 0.032334916 0.10308411 0.024829593 -0.019122548 -0.087966494 -0.0051486064 -0.08775436 0.05869949 -0.04595587 -0.08482105 0.05781982 -0.016492818 -0.0844302 0.08368041 -0.042292412 0.120178804 0.14192936 0.0020264485 -0.09910535 0.10640988 -0.063490294 -0.11872416 -0.10344957 0.0066503105 -0.08140369 -0.20364553 -0.021482505 -0.08844539 0.02226421 0.1750853 0.04076678 0.067309044 0.056358606 0.055459652 -0.1505727 0.016376443 -0.022079654 -0.1264778 -0.19260174 -0.03527299 -0.029154854 -0.052253176 0.082962126 0.18041283 0.08498431 -0.04138438 0.027404148 -0.09249326 -0.12762417 -0.058520507 -0.023139417 0.051095366 -0.097022094 0.02631745 0.0186822 -0.006891601 -0.0041214144 0.11956548 0.07523876 0.19703479 0.1981535 0.017909423 -0.057271034 -0.034125745 -0.05294927 -0.14748725 0.059342243 0.10937681 0.21055797 0.06772254 0.054569233 0.12065429 -0.13997816 -0.034902364 0.014583307 0.21079887 0.09866398 -0.0068282085 0.010279523 -0.0686776 0.020794034 0.011789159 -0.0197824 0.025863905 -0.050763037 -0.0557727 -0.015599263 0.079148956 0.06808577 0.13981007 0.011646715 -0.012473318 0.059518687 0.000726175 0.073963046 -0.03052543 0.024635304 -0.012949853 0.112940766 0.11941084 -0.02204493 0.041348357 0.057690635 -0.03054324 0.005107774 0.04506703 0.17806858 -0.13808897 -0.061154377 0.004405395 -0.0030583001 0.10564933 0.04982981 0.062917985 -0.09201476 -0.03224615 -0.098293796 -0.08477956 0.14978136 0.010816881 0.09211703 0.19997938 -0.12194208 -0.16714938 -0.120927565 -0.13173908 -0.008531624 -0.0017407862 0.056024764 -0.00037592964 -0.0278873 -0.14241542 -0.123428285 0.011529087 -0.068725035 -0.047013167 -0.0645498 0.009919315 -0.070003696 0.13184234 0.11767132 -0.08756546 -0.09001898 -0.018074572 -0.10991014 -0.17329463 -0.030448297 -0.0041491315 0.05597892 -0.027803246 -0.01366382 -0.11662814 0.06695386 0.12386518 0.12544742 -0.18156633 -0.067011796 0.039198954 -0.11467893 0.021513546 0.07551806 0.1649974 0.037865616 -0.048323385 -0.120179124 -0.05697538 -0.090882204 -0.19305535 0.025337156 -0.016485514 -0.07852006 0.021921799 -0.12602724 -0.11287223 0.04615406 0.1163776 0.003352211 -0.034998417 -0.025735216 -0.165678 -0.0921469 -0.097943865 0.13187629 -0.16428947 -0.07086415 -0.089174084 0.021624885 0.15267822 -0.026809653 -0.01987307 -0.06740236 -0.101503655 -0.04154859 -0.14094158 -0.07806144 0.114611804 -0.015460877 -0.19288233 -0.16450804 0.040518183 -0.12115886 -0.1902691 -0.21003605 -0.3416678 -0.019629205 -0.08496513 -0.040780813 -0.093785144 -0.16771309 -0.19036461 -0.21628705 -0.18845469 -0.08681643 0.11749202 0.04806898 0.008925418 0.0384548 -0.07754162 -0.025435872 0.09492543 0.26392508 0.22642776 -0.049199104 0.053607624 -0.07828287 -0.12055305 -0.00096061727 -0.025013011 0.026155777 -0.10996897 0.12742248 0.114615604 -0.08597058 -0.0020785863 0.0064890394 -0.060402844 -0.26526433 0.020333998 0.1488613 -0.08816589 0.15748422 0.116499126 -0.09690051 -0.0012956652 0.13807406 0.26969296 0.0048243944 0.06218262 -0.020283308 -0.15040877 0.07808243 0.022513764 0.025102101 -0.18323778 -0.05793225 -0.087557964 -0.13239889 -0.08471823 -0.10869607 -0.08252587 -0.03488463 -0.106108636 -0.12301459 -0.24347982 -0.06283534 0.06648921 0.06099014 0.08308378 0.036175303 0.118638925 0.008801533 0.036286015 -0.042122632 -0.0876678 0.008759427 -0.052238256 0.0358975 0.100374505 0.10246599 -0.10157113 0.03295559 0.042813797 0.00027710196 0.06816008 -0.029567715 0.029247565 -0.009359723 -0.15563223 0.10959648 0.23465873 0.032540042 -0.17976995 -0.07843254 0.18092221 0.037598938 -0.035933282 0.0030740954 -0.19284746 -0.11528575 -0.001461472 0.15337346 0.09835112 -0.2595277 -0.040963802 0.022215653 -0.22118956 -0.010330265 -0.11418167 -0.04673974 -0.17787188 -0.23717171 -0.087454736 0.017086953 -0.014400001 -0.08347275 -0.1777384 -0.11582132 -0.14740221 -0.107273795 -0.06615858 -0.08486357 -0.19980215 -0.15603302 -0.11044951 -0.088585176 -0.1733495 -0.028859511 -0.06801232 0.11251657 0.072275646 -0.03562858 -0.06445956 -0.028362896 -0.0073824744 -0.065437935 0.070821114 0.12074503 0.09725463 0.09803706 0.041477267 0.0059536807 0.013225708 -0.08126975 -0.13184497 -0.16924033 -0.16715956 -0.069244884 0.04721029 0.00076913985 0.0076709585 0.0184775 0.017638251 0.0036022414 0.16962503 -0.005686999 -0.0357262 -0.097383216 0.037701655 0.05249813 0.008751827 -0.12026367 -0.1790405 -0.10821268 0.008543799 -0.11935436 -0.16829799 0.06433248 0.036377903 0.111847125 -0.0041487627 0.00974336 0.23365939 0.049739774 0.069156505 -0.06693909 -0.13193893 -0.12778737 -0.09070346 -0.055295218 -0.10263288 0.01620362 -0.057450227 0.024113853 -0.18561803 -0.0901364 -0.07662474 -0.11717443 -0.025465963 -0.0068884157 -0.27780262 -0.22266486 0.054385632 0.052519504 0.0921419 0.14000762 0.03862597 -0.0009578789 0.0169869 0.21568106 0.010813689 0.023198728 0.051067322 -0.06979673 0.15411314 0.013747323 -0.062711254 -0.14159654 -0.063773446 -0.01426268 0.015721818 -0.040411077 -0.18523385 0.06642544 0.022135776 0.06765747 -0.13700143 0.09022281 0.01246092 -0.23835365 -0.069670126 0.09736341 0.03352677 -0.15225792 -0.1263897 0.08759537 -0.02831825 0.07942752 -0.02033268 -0.03425643 0.09812885 -0.10799666 -0.3370891 -0.07441743 -0.018291643 -0.2669025 -0.08019856 -0.21268843 -0.385412 -0.15296613 0.07615208 -0.28296322 -0.23522356 -0.30583403 -0.11965253 0.083668284 0.025500791 0.058397662 0.026492564 -0.059665367 -0.06806625 0.07984524 -0.09775262 -0.09873919 0.06679013 -0.0147608975 -0.031361204 0.22172916 0.15267651 0.16377705 0.023987023 -0.08733549 -0.036873695 -0.17045511 0.021205466 0.045381386 0.106777735 0.049302343 0.14481226 -0.111936666 -0.1243025 -0.018911982 0.0827946 -0.1354001 0.124045245 0.03892683 -0.25036773 -0.2007082 0.07052264 -0.12763016 -0.08975237 -0.012305272 -0.12663487 -0.14140694 -0.019107413 0.013187121 0.006551472 0.06415551 -0.077773854 -0.1570238 0.13134952 0.043617163 -0.007748581 0.17986158 0.0813481 -0.062628075 0.06736413 0.16155995 0.13508248 0.014807533 -0.013967391 -0.02024554 -0.044145186 -0.20002273 -0.17991363 -0.027521586 0.17172538 0.088192455 -0.40850276 0.09697838 0.0895885 -0.2451494 -0.10942526 0.08984699 0.14095137 0.07696027 0.22176391 0.17269081 0.24074775 0.0076239957 -0.17334227 -0.2693856 0.0299144 -0.2736201 0.022566535 0.025538003 -0.07046849 -0.15672168 -0.16989997 -0.3328608 -0.05281775 0.06828753 -0.34805402 -0.070095986 -0.05774747 -0.06589596 -0.08513687 -0.018008495 -0.10392643 -0.3478338 -0.06879243 0.10185972 -0.007785603 -0.09403771 -0.20930457 -0.039665412 0.027961109 0.13315709 -0.012244576 0.2022555 0.16394342 0.09013058 0.09135823 0.10045243 0.0013353758 0.16177163 0.1293469 -0.057934303 0.12512979 -0.17872013 0.028091902 0.046143 -0.12733284 -0.025964694 0.024450878 -0.10882735 -0.09300933 0.001561559 -0.044355992 -0.007224374 0.06458107 0.012278861 -0.19603436 -0.43268576 -0.27095798 -0.023962718 -0.1330599 -0.50675714 -0.17730004 -0.008688468 -0.05940762 0.1719086 0.13825214 0.04244624 -0.113878965 0.16378358 -0.09166017 -0.12565528 -0.014944062 0.15376434 0.058750853 0.17597248 0.1807105 0.041463234 -0.13232249 0.12901218 -0.08001945 0.12039927 -0.13800979 0.04924985 0.0905626 0.06977438 -0.12667233 0.094425224 -0.010022284 -0.09051707 -0.0568921 0.07719417 0.024595585 -0.14013383 0.034385167 0.0069369115 -0.002378107 -0.018785657 -0.038988154 0.19089249 -0.0910391 0.10963862 0.02078481 -0.18109955 0.21070868 0.11402934 -0.07100081 -0.09689701 0.0641434 0.022043688 -0.15295371 -0.04967796 -0.032435916 0.033208854 0.076952666 -0.021325951 0.10388039 0.01984395 -0.1768656 0.041914128 0.041754335 -0.18977517 0.06459078 0.22427018 -0.022447804 -0.055648655 0.09636253 -0.18280347 0.13464268 0.09935693 0.04332475 0.05463903 0.10723384 -0.0511908 0.10891085 0.14794786 -0.052136946 -0.0336978 0.21809363 -0.031569906 0.12087283 -0.14878651 -0.10801092 -0.034013435 -0.23173153 0.027783945 -0.059118528 0.025552161 0.21885736 0.16368005 0.1469486 0.072032705 -0.11783415 -0.09046537 0.048210043 0.03236892 0.09421133 -0.00849467 -0.085375495 -0.042120982 0.072290935 -0.07256831 0.08406599 -0.23261575 -0.16937537 -0.056721754 -0.25673175 -0.06043614 -0.111334875 -0.1605084 -0.2828575 -0.10730804 -0.25217015 -0.057205644 -0.07865624 -0.075847946 -0.15705249 -0.04570158 0.013538448 -0.116489574 0.019679923 0.16429244 -0.036134154 -0.044832695 0.049781796 0.024692643 0.0023991961 0.02649803 -0.040888738 0.09065546 -0.1154732 -0.29844594 -0.16746575 -0.19667138 -0.2437683 -0.033837743 -0.04948406 -0.025596201 -0.15777148 0.13124195 0.27607796 -0.056500115 -0.12582015 0.007957793 -0.075066954 -0.0020196547 0.006171776 0.053427808 0.13311511 0.09292346 -0.1796236 0.07131275 0.052172843 -0.07412869 -0.0039896825 -0.047378603 0.04815792 -0.012296384 -0.037778355 -0.06856255 -0.0816263 -0.042528465 -0.036844477 0.10644507 -0.06495528 0.010957495 0.057422232 0.09691706 0.029038098 0.057511125 0.120699964 0.09228781 0.052197877 -0.008313742 0.059365716 0.042620957 -0.050897785 -0.05976432 0.06369528 -0.0054129427 0.005226412 0.04757405 0.039835136 -0.02391159 -0.01535521 -0.06456065 0.04224878 -0.06259623 -0.16568494 -0.047952093 0.07603376 0.03953234 0.13719955 -0.08372906 0.106133536 -0.054291364 -0.14804062 -0.077719755 -0.0321723 0.053358402 -0.02449421 0.013646419 0.139684 -0.03551613 -0.015316176 0.056901023 -0.01558938 -0.056954853 0.038204726 -0.029973106 -0.08840119 0.03014675 0.036576852 0.08920539 0.06658036 0.07970706 0.12128121 0.0077358354 0.017204177 0.130432 -0.089096576 -0.14809936 -0.1994687 -0.22375722 -0.004926845 -0.07037166 -0.20935552 -0.027271304 -0.13398851 -0.22633788 -0.40833527 -0.46708587 -0.4629481 -0.40161943 -0.205436 -0.18815146 -0.31197459 -0.33868164 0.17382948 -0.07004464 0.035459172 -0.22543399 -0.14099656 -0.03591995 0.09185312 -0.102507815 -0.15327246 0.17010291 0.17284717 0.057349283 -0.009456271 0.11528927 0.09402374 0.14440407 0.23705806 0.07030156 0.050280195 0.12505274 0.2065372 0.07095109 -0.030186515 0.0839711 0.013983252 0.014447036 0.0947833 -0.064991735 -0.0060437135 0.002656458 -0.16613068 -0.17599553 0.07477597 -0.007937668 -0.00091115676 -0.053782605 0.055188153 0.06298394 0.06647301 -0.055293147 -0.096912414 -0.055939477 0.07929039 0.08614237 0.010286203 0.014969686 0.07457657 0.05147352 -0.1466248 0.031104032 0.12050568 0.07164288 0.0141416695 -0.10100593 0.09616417 0.112576894 0.048063964 -0.03856964 0.08818107 0.1224877 0.09764527 0.106126614 -0.0047482364 0.14715748 0.12911433 0.04098221 0.0022884163 0.071271084 0.034805078 0.090241335 0.090819195 0.107725576 0.013266885 0.033135865 0.17045222 -0.002881225 0.02825944 -0.014656841 0.082740895 0.12174771 0.06389306 0.01587954 -0.13787957 -0.16723435 -0.057236835 -0.025011618 -0.12066885 -0.025473885 -0.114752024 0.06637691 0.15371315 0.037469257 -0.03128558 -0.06280061 -0.028073514 -0.10272224 0.0049490305 0.04406238 -0.050034657 0.17579716 0.14458674 0.05422323 0.1408848 0.017663546 0.13581778 0.032689456 -0.03289348 0.106820814 -0.14875364 -0.17639647 -0.18694335 -0.03456477 -0.06568323 0.030474281 0.051144864 -0.10350836 -0.16644448 -0.21689068 -0.27162567 -0.24954039 -0.07087276 -0.0410387 -0.17979455 0.006962226 -0.013072615 -0.006871599 -0.21648277 -0.09164812 -0.06125628 -0.19835694 -0.07676644 -0.16040982 -0.02183758 -0.12532157 -0.07229851 0.09320404 0.10933965 0.14933874 0.13788378 -0.045649514 0.030979738 -0.020747393 -0.010160067 -0.035659228 0.13008326 -0.045322157 -0.13940506 0.04730996 -0.12221962 -0.024939474 0.028066253 -0.11124812 -0.10331829 0.13479273 0.070540264 0.015016992 0.027388172 -0.120132945 0.006922889 0.031024726 -0.038504824 -0.01750777 0.15082307 0.05914565 -0.20074049 -0.15133177 -0.20996097 -0.14702776 -0.10596387 -0.049287807 0.04030705 -0.2038588 0.019570783 0.15477178 0.18177205 -0.24250104 -0.06363154 -0.0528402 0.12785506 0.1123581 -0.08527307 0.14281714 -0.013864276 -0.131444 -0.0066310647 0.16501322 0.120203204 0.023772432 0.06730911 0.010107156 -0.05246469 0.14630614 0.041938912 -0.13231902 0.03524551 0.026720712 -0.24009967 -0.061423015 -0.32217282 0.034497537 -0.013401455 -0.028684197 -0.47628713 -0.1481374 0.15320462 -0.04226457 -0.011421046 -0.16190197 -0.09613961 -0.111641236 0.17516154 0.08597631 0.088093735 -0.027380574 0.019546911 0.081432424 -0.024208186 0.027201694 0.09685364 -0.16084741 -0.11296106 -0.12337878 -0.15832624 0.07411182 -0.008038538 0.18382512 0.13369468 0.040833704 0.028347492 0.10289897 0.052573513 -0.19703975 0.007456858 -0.11544519 -0.008755279 -0.008547492 -0.1819969 0.004543395 0.08065635 -0.07296407 -0.29899365 -0.48328906 -0.03699639 -0.052349787 -0.089792006 -0.11602319 0.012130956 0.037276935 -0.0070683653 -0.26977867 -0.23075691 -0.2242281 -0.053992324 0.14537027 0.11576874 -0.11921879 -0.03727609 0.116256535 0.15487868 -0.13250646 -0.19607696 0.05656053 -0.0010760473 0.03507825 -0.058364782 -0.14542092 -0.12990439 -0.0995538 -0.025237123 0.03373548 0.096833155 0.103832394 0.14364077 0.11214578 0.08489954 -0.08719212 -0.23013286 0.25762227 0.020972831 -0.10428956 0.040289186 -0.12442481 0.04024392 0.16586389 0.03026209 -0.09728266 0.3176839 -0.06740196 0.12336115 -0.2576398 0.2964715 -0.10364105 0.11492102 0.13061899 -0.04511659 -0.010375468 0.09438781 0.04328809 -0.06157747 -0.060554065 0.022866571 -0.16090818 -0.016345326 0.020135362 0.11598379 0.023515167 -0.07963411 0.03958501 -0.11015979 -0.09740821 -0.044120815 -0.014624733 0.013652563 -0.11392363 -0.22408232 0.04186571 0.40653846 0.07153754 -0.010321766 0.04077419 0.04703843 0.107915536 -0.021845344 -0.1742973 0.116331935 0.018208722 -0.25016236 -0.41101047 -0.00021990918 0.024800984 0.1440023 0.059802733 -0.093122505 -0.17799924 0.1233941 0.113165505 0.04976891 -0.21146354 -0.43512908 0.15882367 -0.04414421 0.04471701 0.05569034 0.097483374 0.1157105 0.055039555 -0.21167485 0.17378283 -0.12371568 0.06478521 0.0059937756 0.07425839 -0.1077721 -0.10929603 -0.10402332 0.002367746 0.22224104 -0.07731247 -0.061458774 -0.17663372 -0.03461434 0.07738239 0.031164618 -0.15201956 -0.009431875 0.03947546 -0.04765246 -0.027447412 -0.18140371 -0.2679324 -0.08467184 0.058624864 -0.052006032 -0.3001533 -0.13681926 0.0036397432 -0.021672303 0.18619548 -0.24234307 0.010318385 0.075735256 -0.040904347 -0.11779175 -0.032994382 -0.0101736095 0.24052377 -0.0058958377 0.11087522 -0.036242556 -0.16266657 -0.053254317 -0.013270233 0.044265002 -0.018454764 0.031531442 -0.03976227 0.008073896 -0.017853389 0.05689484 0.08422803 0.08248621 -0.020546244 0.18301271 0.040683478 -0.08023205 -0.048492137 -0.12770265 -0.13124652 0.099732935 -0.046073373 -0.1286997 -0.03869361 -0.027154544 -0.1513931 0.11776497 -0.0759732 0.051150136 -0.24615084 0.08505696 0.070529595 -0.11791289 -0.24664111 -0.043171283 0.08782283 0.02198038 0.020507947 -0.09152316 -0.098876685 0.12598546 -0.037444532 -0.007583473 0.013808089 -0.262154 -0.119332284 0.05464239 -0.07492083 0.03752601 -0.01853619 0.008995284 0.056637578 -0.0647363 0.23254338 -0.2033304 -0.122146256 -0.12402492 0.0032030398 0.07810645 0.008609371 -0.1087619 -0.349379 0.18528137 0.027702099 0.0017630025 -0.11231942 -0.101150334 -0.100175925 0.08632765 -0.024563061 -0.18992455 0.09486363 -0.093401596 -0.019394027 0.036454003 -0.086416006 0.01359495 -0.050361585 -0.10709438 0.10063867 0.011273018 0.14197908 0.17365855 0.015385285 -0.012979632 0.02503239 -0.0031808258 -0.113994345 -0.063806444 0.06418774 0.054326665 0.04454423 -0.091584265 0.041527137 -0.09491373 -0.01569312 -0.027351404 -0.03830961 0.047393132 0.015728861 -0.047302637 -0.1453079 -0.014336916 0.022170916 0.11297264 0.16759658 -0.04260629 0.19080982 0.008574156 -0.09314893 -0.10589451 0.07259929 -0.049678445 -0.11406508 0.03470341 0.2168075 0.15673895 -0.022497527 -0.03710439 -0.017486421 0.09326379 0.037214 0.10718437 -0.05486314 -0.21975659 0.047427583 -0.071707025 -0.18518335 -0.09959561 0.07411625 0.102513686 0.14015932 0.11854106 0.04516958 0.029101528 -0.013055233 -0.12613867 -0.15206383 0.05105541 -0.07322713 -0.09114006 0.027215037 0.07907976 -0.04654512 0.068366304 -0.07644668 -0.119584024 -0.13723259 -0.0004074848 0.088621944 0.118488654 0.09289172 -0.046656065 -0.03488393 -0.062219422 -0.06290949 -0.019661075 0.01950991 0.08022536 -0.04615381 -0.21200068 0.032818206 0.018124517 0.23479077 0.28643322 0.18813054 0.09507148 0.13762438 0.17630193 -0.036934957 0.13849533 0.18519717 -0.03647446 -0.068324335 -0.11559808 -0.017151358 -0.07502934 -0.22282024 -0.28700173 0.29419136 0.1344039 -0.026870312 -0.046903823 -0.05399898 0.02229933 0.10323598 0.07099847 0.039556216 0.31817773 0.101198405 0.07930706 -0.020936774 0.17992961 0.19023018 -0.16325377 -0.1264647 -0.033176545 0.10167585 -0.0189943 -0.072338134 -0.027347468 -0.037170403 -0.032623082 -0.0142546045 -0.2572822 -0.2124228 -0.05583588 0.021450052 -0.04341976 0.101857156 0.0051748585 0.12941143 -0.023443643 -0.07122812 -0.19071196 -0.08375825 0.044689696 -0.072624 -0.02932798 -0.04112724 -0.05769118 -0.09509307 0.24672894 0.3492735 -0.023417022 0.058250457 -0.040761013 0.07906355 0.09728108 0.2103909 0.011675505 -0.26279104 -0.02227677 0.15397899 0.019556677 -0.05568047 -0.02257543 -0.034214284 -0.017770994 -0.21456568 -0.072859034 0.042367473 0.13516307 0.024299733 -0.089472465 0.0029003855 -0.014800199 0.13213025 0.06840152 0.041776337 -0.097123764 -0.1308823 0.0043970575 0.1424555 -0.054861773 -0.044611543 0.085341915 0.045241162 -0.17042626 -0.13030742 0.011471603 0.12503879 0.101588644 -0.015117278 0.060453005 0.0024249651 0.098626144 -0.13204521 -0.24928251 0.039229568 0.012381101 -0.011681452 0.092415966 0.14989851 0.16304749 0.2761499 0.16530833 -0.013679792 0.022285828 0.016373603 -0.046080135 -0.03570971 0.024276644 0.06002904 0.053237256 -0.03361428 -0.0053479467 0.07926858 -0.0015822373 -0.115124896 -0.05661598 -0.06529349 -0.21730788 -0.071075484 0.06740616 0.045368757 -0.031106565 -0.03254598 -0.11909688 -0.0536729 0.09928857 -0.0537084 -0.08306096 0.22107174 -0.023769356 -0.19717275 0.04810272 0.08720783 -0.031366657 -0.15982048 -0.057575624 0.08104412 -0.0073491773 0.054748897 -0.07660828 0.07024267 -0.10608438 -0.008770676 -0.0047816485 0.056418724 -0.025329115 -0.1074148 0.034148432 0.11942242 0.10989625 0.110965565 0.10183623 0.0022900135 0.057044696 0.083583914 0.03399752 0.1633232 0.10599434 0.033004064 0.010864552 0.08982711 -0.031822376 -0.003813639 0.22507949 0.11690165 -0.032248907 -0.061218627 0.19285087 -0.1129433 -0.07912511 -0.0006504282 0.008715567 -0.07991583 -0.1378942 -0.014686824 -0.13681722 0.08966137 -0.02555253 0.007956049 -0.07402648 0.03768558 -0.028631195 -0.18420374 -0.07272528 -0.30922958 -0.16885017 -0.16567914 -0.16349863 -0.15299545 -0.138273 -0.19484533 -0.12971672 -0.023222601 -0.101554856 0.033675607 -0.049675222 0.0015367515 -0.013591822 -0.119644955 0.085401475 0.09706859 -0.15769646 0.045461748 -0.06470805 -0.280192 -0.11195123 -0.1840475 -0.21769132 -0.2313092 0.05544381 0.054113578 -0.027744671 0.02034122 -0.07650392 -0.09412872 -0.047392435 0.005170733 -0.04179102 0.045071725 0.09117165 0.20819423 0.17927855 0.09657808 0.12304767 0.054778602 0.06857369 0.2155637 0.059534863 0.08612905 -0.09762213 -0.08002147 -0.15536857 -0.1229342 -0.10472603 -0.0034434241 -0.11273199 -0.084488094 -0.009067985 -0.22986054 -0.33247173 -0.233809 -0.14504106 -0.1789541 -0.15425791 -0.15144692 0.03903616 0.036854625 0.11746393 -0.029091336 0.15750262 0.06496453 -0.00018480935 -0.022874886 0.092556626 0.075041056 -0.10138759 0.134363 0.23365735 0.16050771 0.24246983 0.030580452 0.10295197 0.080642685 0.045681376 0.17567553 -0.029385116 -0.10433141 -0.008127486 -0.010253602 0.011257908 0.013650238 0.014213903 0.030215172 -0.0011567399 0.047947336 0.16146646 0.058651943 0.11819271 0.03908267 0.12454106 0.119567595 0.21158725 0.13946868 -0.059635684 -0.037386738 -0.035908043 -0.25937945 -0.07367803 -0.058435913 -0.15225229 -0.23448934 -0.19947737 0.1374073 0.124206774 -0.13743837 0.11974593 -0.12895007 -0.05270045 -0.11981691 -0.19569662 0.12314651 -0.041435607 -0.043229986 0.022801472 -0.030738594 -0.07806945 0.05047642 0.02667091 0.03414004 -0.03313251 -0.15147015 -0.22066024 -0.215092 -0.11871114 -0.14999917 -0.2320307 -0.33210522 -0.22153184 -0.19916749 0.031182544 -0.07014494 -0.08702736 -0.06052845 -0.061171096 -0.13570708 -0.19385406 -0.13282706 -0.10688505 0.03815924 -0.00204793 0.0430764 -0.03417493 -0.054119173 0.04506915 -0.069513574 0.09241427 0.044504497 0.017984055 -0.026005832 -0.08896737 -0.0046028486 -0.118410595 -0.0055218376 0.047863808 -0.035742816 -0.039698094 -0.15233518 0.0798088 0.12819919 0.018462481 0.04535078 0.034573697 0.0114133805 0.05571138 0.06328701 0.029042061 0.037552636 -0.019561473 -0.09294172 -0.05218001 -0.038099255 -0.12145947 -0.04674496 0.013762419 0.12151054 0.030349724 0.10856567 0.18230076 -0.044508785 -0.051070776 0.10113149 0.14789069 0.06589997 -0.006773202 0.014498524 0.025269372 0.022284893 0.00024558598 -0.12165917 -0.1232745 -0.11419617 -0.11882794 0.13911101 0.13592544 0.17400292 0.22611837 0.21539977 0.16721758 0.12537083 0.089126244 0.2350835 0.05055114 0.10241153 -0.12734932 -0.013615454 -0.044700857 -0.011138429 0.06919098 -0.02050225 0.09118954 -0.016247885 -0.18403526 -0.12687908 -0.17048453 -0.13052975 -0.11278284 -0.13892083 -0.120433636 -0.12831315 0.0037897702 0.00016449607 -0.07358743 -0.03273321 -0.09199208 -0.20192738 -0.31384456 -0.08563564 -0.06168308 -0.010329665 0.046417832 -0.035768144 0.09069558 0.060616553 0.07056123 0.05850253 0.19318505 0.13175526 0.06355099 0.08165124 -0.015629342 0.12173216 -0.02975314 0.042054027 0.052840002 0.13695729 0.09265652 -0.12785494 -0.073666185 -0.11073205 -0.21323776 -0.044758163 -0.1254079 -0.06062284 -0.1642687 0.003074611 0.18312685 0.08231474 0.043472387 -0.051458947 0.012769234 0.06255136 0.016130725 -0.032174014 -0.023448864 -0.060970142 -0.055055816 -0.0530559 -0.0247447 -0.011561868 -0.04504429 -0.10167809 -0.06939516 0.03948462 -0.06346983 -0.02923478 -0.01873139 -0.01927955 -0.07135232 0.03839109 0.06912656 0.14921482 0.124569595 0.2857423 -0.12454752 -0.034345187 -0.052308008 0.060475472 -0.0156108895 0.0362185 0.031795308 -0.09724428 -0.017404985 -0.16400197 -0.019265193 -0.008788048 -0.08294797 0.080534324 0.18196252 0.015980186 -0.16860402 -0.05962555 -0.103762545 0.07551555 -0.026440637 -0.06768028 -0.027732013 0.034746516 0.034423586 0.122628815 0.07826161 -0.060203806 -0.0425788 0.010339861 -0.11117365 0.0066638966 0.16008556 -0.103492655 -0.1725716 0.13706535 0.027075116 0.12842044 -0.08382207 -0.0047384244 0.087228276 -0.16630068 0.038292233 -0.012577443 0.05837066 0.15538053 0.07963672 -0.17057475 -0.09251592 0.016980758 0.028553773 -0.1009145 0.12566625 -0.014007201 0.04278151 -0.013615394 -0.21296413 0.03882436 0.044107057 -0.087731525 -0.014062258 0.044807754 -0.044145614 -0.015230133 0.14450604 0.005494451 -0.115218684 -0.13069588 -0.2338917 -0.10388836 -0.04133067 0.19991179 0.059907038 0.09973321 0.13671927 -0.007819596 -0.120554686 0.035400167 0.21542011 0.11148986 0.060970195 -0.04235557 -0.05331144 -0.04833597 0.02969009 0.100813076 -0.041572142 -0.09446645 0.014976536 0.02824415 -0.10292303 -0.16961409 -0.10277748 0.021801353 -0.11306859 0.03635476 0.025766673 -0.12145415 0.3416743 0.1504514 -0.09825592 -0.041010212 0.12817939 -0.0825384 -0.07965887 0.035055287 -0.06456475 0.06366832 -0.070200086 -0.24663281 -0.08827674 0.01440669 -0.0817906 -0.14383571 0.016734434 0.077323325 0.22477148 -0.10680356 0.13282022 0.01826709 0.062653065 0.019504327 -0.12838057 0.012845357 0.10712863 -0.04644842 0.071097285 -0.33974633 -0.19816841 -0.19875294 -0.012640316 0.024348948 -0.12299095 -0.095774665 0.0142543875 -0.030101499 -0.050956067 -0.1505368 0.013125849 -0.1633163 -0.22279635 -0.011744916 -0.0026204842 -0.0652055 -0.07486598 0.03418401 -0.035598658 0.018597033 0.00956474 0.12406887 0.08605256 -0.0011270075 -0.006268962 -0.18307015 -0.10350592 0.07233454 0.13444076 0.07774692 0.025603874 -0.20419751 -0.106041394 0.14918752 0.007853795 0.088106215 0.02911521 0.08277838 -0.059410788 0.14871258 -0.033038907 0.07086658 -0.08373799 -0.18436599 -0.32371268 -0.31260297 -0.22991984 -0.09752546 -0.14484166 0.020532344 -0.01890927 0.32217655 -0.001673886 -0.1925963 0.108909644 0.0741375 -0.0056235003 -0.10335443 0.14454575 0.15166125 0.12823124 -0.0613012 -0.027458828 -0.19957945 -0.10935611 -0.07137264 -0.11361735 -0.09589965 0.046941496 0.18388905 0.09135658 -0.1454884 -0.1044379 -0.020156492 0.11855951 0.1251406 0.048341602 -0.035656538 -0.027270585 -0.19586165 -0.106041186 -0.16802402 -0.012149256 0.11595223 0.10432592 0.047617562 0.0077472646 0.04326384 0.078445934 -0.061921004 0.04174212 0.042061053 -0.08395621 -0.062032357 0.009617862 -0.063019 -0.087491654 -0.019102437 0.039486393 0.14131889 0.07087196 0.06921252 0.04707422 0.04439843 -0.1986049 -0.14885813 -0.26813546 -0.2831169 0.113977626 0.15170535 -0.029708656 0.012372461 -0.19476432 -0.2149005 -0.1097592 -0.28775263 -0.01194549 0.03554272 0.099883 0.11109927 -0.06663293 -0.2317083 0.043891355 -0.08274485 -0.18386982 -0.15758695 -0.110236 -0.108038016 -0.042969216 -0.022695737 -0.07180909 -0.10679092 0.10874057 -0.0383789 -0.24023895 -0.18412876 -0.03836907 -0.03130581 -0.06070664 -0.12857457 -0.03932338 -0.010836949 -0.15733217 -0.17646588 0.087113045 0.018419076 0.086970046 0.11399147 -0.19382645 -0.17163417 -0.08380055 -0.14298888 -0.45988286 0.0017532819 0.053125225 0.030146398 -0.015002353 -0.13146235 -0.23543115 0.015358411 -0.01690119 -0.091010205 0.029231634 0.0023722742 0.052190013 -0.052610558 -0.04282291 -0.11662821 0.10556313 -0.1745826 -0.45838407 -0.5303865 0.039656848 0.08321775 -0.17182533 0.16570297 0.43224233 -0.023655426 0.0652328 -0.03800721 0.013923901 0.13483508 -0.04335967 -0.036127534 -0.06567838 -0.2166863 -0.104040034 -0.24090043 0.19783624 -0.051862035 -0.14982812 -0.02472812 0.13544023 -0.03037876 0.08971566 0.06810682 0.008066384 -0.21447854 0.14724319 0.15903461 -0.041765273 0.07463918 -0.21771245 -0.14604774 0.0145286005 0.113605395 -0.089673765 -0.09991151 -0.018138172 -0.015673602 -0.0066402555 0.08045683 0.01122649 0.08980733 0.141043 -0.039032944 -0.08272486 0.042904917 -0.06484238 -0.21779598 -0.016560448 0.041862927 0.08515217 0.02570937 -0.122184835 -0.32789993 0.0074489075 -0.1733978 -0.018534528 0.048558272 0.04292582 -0.09559661 -0.13818485 -0.22210401 -0.18627094 0.023309108 -0.056237094 0.062703185 0.06838479 0.19390938 -0.08477417 0.04923914 -0.009313857 -0.010286118 -0.01657624 0.03432329 0.20082156 0.17004503 0.013731648 -0.13853163 0.071978666 0.005263406 -0.030691018 -0.05312329 -0.0334642 -0.03362984 0.10478928 0.028985562 0.21091102 -0.14283484 0.01772619 0.082059525 -0.06172195 0.12191011 -0.044424664 -0.22955354 0.10548652 0.023929156 0.09344193 0.034711413 -0.1022392 0.04206687 0.077303305 -0.068701446 -0.31120995 -0.06016837 0.08302692 0.18087128 -0.113409705 -0.20099978 -0.070322454 -0.12409225 0.21728797 0.2209701 0.11400213 -0.22967418 0.00053574494 -0.035554606 -0.17437576 -0.099403396 0.033402395 -0.079782404 0.02352084 -0.17082945 0.035041273 0.03401128 -0.16466223 0.002456084 -0.05814198 -0.0021966754 0.029960949 0.031584654 0.010429159 0.05523978 0.023154471 0.018161172 -0.11612117 0.053756572 0.05948591 0.06249742 -0.10452738 0.011881597 -0.10427012 -0.13558207 -0.1872193 0.1045044 -0.05315593 -0.0043196552 0.10029979 0.0051423553 0.024470128 0.0546065 -0.028618004 0.061194554 -0.0026126904 -0.015548728 0.019879188 0.015700962 0.01449957 0.16399054 -0.17757241 -0.15781792 -0.20893097 -0.05823423 0.05249104 0.049111895 -0.09640229 -0.07510322 -0.069603354 0.22044496 0.0744393 -0.04696922 -0.09891324 -0.05426755 0.08339384 0.142103 0.2385173 0.18844424 -0.028128818 -0.07740346 -0.11993571 0.032337584 -0.015993465 0.1077624 -0.014151957 -0.062146463 -0.03273713 -0.137953 -0.20472923 0.08424059 0.12570763 0.100927696 0.13218622 -0.1010919 0.002185298 -0.036629673 -0.071973 0.006626213 -0.13837765 -0.1249402 -0.028170692 0.08850883 0.0056991116 -0.026142685 -0.017378235 -0.15079847 -0.21014933 -0.24298988 -0.11349017 -0.10929978 0.10358923 0.3094104 0.27034608 0.25449523 -0.3417811 0.14457095 0.41420084 0.08767162 -0.20802644 0.040991373 -0.2039516 -0.28290388 -0.07569884 0.2225839 0.08705512 -0.057780843 0.0769655 -0.18952674 -0.06882289 -0.009523123 -0.21554203 0.02213667 -0.12610115 0.13960321 -0.1585913 -0.08401667 0.07768118 -0.06363553 0.03786397 0.018507257 0.013480459 -0.07361458 0.08742728 -0.041722815 -0.02344319 0.071640864 0.03350145 0.061999157 0.10457275 0.09884709 0.038470283 -0.058642372 -0.020460835 0.008898631 0.11907271 0.02540154 0.13535313 0.047631737 0.017610705 -0.08248118 -0.09973142 -0.1042515 -0.1717437 -0.04505055 -0.02728265 -0.042219315 -0.016278137 0.030220918 -0.031811282 -0.005527452 -0.03203294 0.025337217 -0.12789983 -0.06426093 0.08217366 0.09487376 -0.07147095 -0.08921351 -0.20295364 -0.03912244 -0.1636811 -0.08483632 0.0830523 0.11347081 0.17111525 -0.032284323 -0.12705676 0.029346395 -0.10762035 -0.09144759 0.03264548 0.051169988 0.076194786 0.13288304 -0.17081366 -0.03882122 0.1393133 0.02684202 0.021201044 -0.14512399 0.2652222 0.03840658 -0.3733594 0.030247642 -0.15165836 0.114255875 -0.16104433 -0.33191785 -0.17350757 -0.06163072 0.18339132 -0.21084341 -0.09947904 0.18398927 0.2000566 0.16222285 -0.064670935 -0.12254544 0.1160442 -0.08507377 0.0048687216 -0.011403464 -0.049130112 -0.18416303 0.06406869 0.13653323 0.08630814 0.10411811 0.16928111 0.05562844 -0.028861206 0.0056464863 -0.038879752 -0.10943742 -0.022688573 0.0077010384 -0.15126643 -0.29784125 0.014988328 -0.03485744 -0.1819063 -0.07214921 -0.08827402 -0.028428184 -0.13802128 -0.26751697 -0.16852288 0.1177195 0.16720904 -0.00059582776 -0.113558225 -0.02749836 0.07747734 0.14430195 0.1114545 0.24696645 0.074605405 -0.078244835 0.23181742 0.016389292 -0.13130032 -0.013193099 0.048020747 -0.0026526304 -0.002857027 -0.028648002 0.11610316 0.18810001 -0.050475504 -0.21643467 -0.07710718 -0.014640304 0.0762336 -0.01410185 0.015340107 0.016609114 -0.04110925 -0.1397096 -0.21371369 -0.08815066 0.017091759 0.16161369 0.02634565 0.10121202 0.121787876 -0.013350244 0.016327713 -0.19324966 -0.066204846 0.06705901 -0.084993064 0.04030564 -0.016152717 -0.06643575 0.0152189005 0.052821886 0.20188983 -0.2431085 -0.036337115 -0.18990162 0.017964575 -0.07433671 -0.0077804103 0.07894212 0.13426512 -0.19733569 -0.07141872 -0.072092645 -0.03695595 -0.11133936 -0.12066317 -0.16947143 -0.101130866 -0.03294588 -0.12997848 0.040441554 0.16692933 0.14296092 -0.05678969 0.021462705 -0.048433665 -0.006298842 0.050299797 0.016378824 -0.16109766 0.028285371 0.010286455 0.06999502 0.0035688835 -0.18766229 0.08861926 -0.09848412 0.13699444 -0.20133168 0.011991373 0.16249812 -0.1276273 -0.03704948 -0.17808688 -0.18915501 0.0879507 0.009109484 -0.22971493 -0.253529 -0.10952129 0.034561753 -0.11112092 -0.18854703 0.029019486 0.10682616 -0.031922087 0.036715224 -0.07084744 -0.0024374658 0.016808458 0.13321298 -0.13192843 0.08659792 0.02758801 0.038803358 -0.009274935 -0.07238751 0.18133554 0.06867049 -0.04507918 -0.10381977 -0.062129952 0.0009819946 -0.038826797 0.082895115 -0.0070726355 0.11337734 -0.050517287 0.04869936 -0.15629244 -0.083222315 0.026331285 -0.07591768 -0.08702122 -0.1354761 0.0654236 0.06526571 0.03756106 0.19550796 -0.0093771955 -0.1428271 -0.032995008 -0.06418298 -0.27602345 0.024111021 0.11839569 0.07240109 -0.19215128 -0.11110022 -0.030665006 0.036140043 -0.015675489 0.014320643 0.0848694 0.22033696 -0.15210024 -0.10130113 -0.098364376 0.092629395 0.018057115 -0.03856021 0.06833629 -0.18737206 0.076485895 -0.26563063 -0.012699471 0.078819774 -0.15613899 -0.0029102494 -0.17266865 -0.11432987 0.087847516 0.05720238 -0.02923322 0.044458337 0.20123309 0.051909283 0.08176548 -0.26066285 -0.12084641 -0.08839534 -0.026716907 -0.13948032 0.0073779537 -0.039132364 0.015137322 -0.083880775 0.080291785 0.12354819 0.22216271 0.057841472 0.21250272 -0.1115263 -0.07375055 -0.12077338 0.02633699 -0.077730805 -0.081836924 -0.09300952 0.035818815 0.07030125 0.17490509 0.16726065 -0.22819668 0.079299405 -0.11257781 -0.18968497 -0.050855447 -0.23958407 -0.036066663 -0.07040694 0.2441864 -0.14475791 0.116920345 -0.10021742 -0.40572315 -0.03664353 -0.17045373 -0.10524399 0.03307985 -0.067381315 0.0046280012 -0.1236429 -0.062306784 -0.031580284 -0.017183457 0.006879882 0.027881345 0.04531156 -0.16793321 -0.20855126 -0.13755792 -0.17381589 -0.14150095 -0.1695544 -0.1403374 0.078754455 -0.14177762 -0.09367604 -0.17902282 -0.13344714 -0.07290508 0.28344274 0.09154114 -0.014444624 0.0927771 -0.06801459 -0.29709345 -0.05348291 0.039578523 0.020510195 0.042034905 -0.04315633 -0.040697534 -0.0025389467 0.0045436122 0.3879992 0.1058763 0.12992235 0.051444493 0.019471433 0.15100297 -0.03251452 -0.034659147 0.19111447 0.29672873 -0.037635986 0.15598536 0.1814462 0.07563743 0.05194357 0.0067941886 0.0009159153 0.03327484 -0.0249034 -0.16918361 -0.13576521 -0.04839815 -0.11048193 -0.13241568 -0.0019346363 0.09657478 -0.1591144 0.31977147 0.038928576 0.07164763 -0.046427254 -0.17113157 -0.1858366 -0.28638354 -0.32236332 -0.10322878 0.13165258 -0.17347476 -0.14243515 -0.20558716 -0.16128181 -0.2425372 -0.091524564 -0.15114605 -0.08507963 0.038221877 0.048073076 -0.088092625 -0.0015785317 0.03691774 -0.007957876 -0.07036961 0.044667773 0.07264022 -0.13276124 -0.16764577 -0.30816993 -0.30307147 -0.05453511 0.053798188 0.07963784 0.0101880515 -0.09616386 -0.18550272 -0.13033447 -0.12925759 -0.082472466 0.15115017 0.15473631 -0.012183825 -0.018557487 0.07201639 -0.16132179 -0.22014472 -0.051376812 0.0068222205 -0.067322485 -0.111152954 0.24660027 -0.04558823 -0.023565179 -0.088408016 -0.08218214 0.017688688 0.02433853 -0.009576719 -0.011682918 -0.077652514 -0.07723038 -0.38041025 -0.086143255 -0.041604348 -0.19703066 -0.23566829 -0.21781276 -0.096609004 -0.025796402 -0.1352586 -0.09900597 0.016888557 -0.07586485 -0.0039098533 0.14043923 0.17787632 0.057792943 0.053405017 0.15100709 0.08630311 0.05044293 -0.012286275 -0.2070964 -0.14784643 -0.04731766 0.14363943 0.088049546 0.055318028 0.063841715 -0.29596823 -0.074730225 -0.20165938 -0.015949586 -0.11918947 -0.06775726 0.07858571 0.005515825 -0.16850904 -0.06949174 -0.33995125 -0.07342738 0.028118072 0.045431577 -0.13480312 -0.05276733 -0.18734671 -0.11454056 0.033362556 -0.024158927 0.024323715 -0.025936915 0.0060124826 -0.001889252 0.093914635 0.23280777 0.13133872 0.18548313 0.11409662 -0.09583725 0.0060892967 0.0151233 -0.1457332 0.024474341 -0.04583898 -0.014699647 -0.0063785296 0.039140098 0.045007054 0.05916463 0.051293552 -0.051519595 0.0076030805 0.030049244 0.07261171 -0.17822804 -0.26470572 -0.106205225 -0.121236876 -0.17687885 -0.15661594 0.07748934 0.12252345 -0.04160285 0.077328734 0.14961852 0.0915717 -0.018155925 0.021966735 -0.011144999 0.11729319 0.22864513 0.077136844 0.039608918 0.100816615 0.06596311 -0.07931329 0.043021914 -0.036504313 0.062470928 0.016560718 0.036792167 -0.042590942 -0.16143355 -0.07123168 -0.112822026 -0.18359096 -0.29174897 -0.13666812 -0.23769878 -0.14004175 -0.030520989 0.06555386 -0.07470808 -0.07075102 0.04072662 0.025293266 -0.13677981 -0.028169904 0.004665162 -0.1400705 -0.1475965 -0.09430808 -0.012786573 0.037922215 0.14190497 0.13195138 -0.04337603 -0.2856406 0.004099232 0.028484592 -0.045071896 0.039524354 0.05484029 0.124078095 0.17098601 0.19754902 0.03460515 0.06976802 0.030128432 -0.11696838 -0.014370124 -0.012015688 0.07599932 -0.0145629365 0.039664615 0.07361124 -0.015385843 0.02278772 -0.027084533 0.08930134 -0.027988872 -0.070269324 -0.0034978066 -0.037143722 -0.039350476 0.09383734 0.04594558 -0.03566117 -0.0005056463 -0.050780963 -0.2236019 -0.15912277 -0.24413554 -0.036775175 -0.038288973 0.03482321 0.0056087025 -0.13737261 0.034446694 -0.052134868 -0.038621623 -0.061770413 -0.094230704 0.114098035 0.031062871 -0.09915436 -0.0075339316 0.07240677 0.05161057 0.14432998 0.15835848 0.25169343 0.09155436 0.0748088 -0.004104285 -0.006329544 0.081185475 0.17211197 -0.019002486 0.016750095 -0.0152278 0.045333765 -0.033615816 0.053950235 0.13264418 -0.10195272 0.10578664 0.030401316 -0.039303117 -0.085030705 -0.053522676 -0.009854276 0.2236803 0.22574005 0.0006307018 -0.04838777 -0.02938022 0.022878 0.14100686 0.21412636 0.07130125 0.11207463 0.24636537 0.033469245 -0.063724354 -0.099352665 0.26100022 0.044417232 -0.31717342 0.0024515046 -0.102942996 -0.06470542 -0.041133236 0.0009344622 0.064871304 -0.18002088 -0.14722455 -0.21565427 -0.083253704 -0.12808946 0.013516489 -0.024742894 -0.20296924 -0.3183774 -0.1810857 -0.05696428 0.10932141 0.0350179 0.0035695913 0.09903181 0.12884475 0.15470225 0.1523437 0.10358858 0.077133685 -0.083229676 -0.0063151685 0.01758803 -0.13225456 -0.06851557 -0.026293352 -0.13957533 -0.10484581 -0.099156454 0.17625983 0.15688278 0.2610966 0.13247837 0.17126234 0.31468874 0.11727428 -0.17254347 -0.10162658 0.18877743 -0.0065017887 -0.12853554 -0.12583151 -0.08416137 -0.027443143 -0.08483944 -0.13754396 -0.17289838 -0.081335425 -0.17729755 0.21301213 0.123945124 0.09605412 0.1955879 0.14033602 0.07582182 0.035460807 0.008073564 0.08335765 0.03340499 0.084252104 -0.027212983 -0.07280587 0.062417194 -0.08854278 -0.011899952 -0.27723962 -0.2645867 -0.2944965 -0.20679766 -0.31316063 -0.32158774 -0.2015187 0.004426542 -0.051788535 -0.07372567 0.048524644 -0.016100096 -0.1094878 -0.17551896 -0.20791794 -0.032350015 -0.049798537 -0.065108255 0.1179013 0.13864739 0.019514386 0.1143263 0.21446885 0.04056102 -0.011296279 0.0570453 -0.011762294 -0.071055844 0.06038155 -0.19859973 -0.02892815 0.03234955 0.12134555 -0.1446769 -0.13475719 0.023274196 0.097510815 0.08758685 -0.07835018 -0.03417346 0.017903252 -0.04910682 -0.004971729 0.06721228 0.12723957 -0.17753464 -0.08775978 0.051017806 -0.07192643 -0.15240407 -0.06447993 -0.04802485 0.12841329 -0.016165445 0.004609511 -0.053244527 -0.029152397 -0.13967691 -0.028127478 0.046142846 -0.10910612 -0.033307265 0.121379904 0.033721864 0.062852025 0.048338473 -0.06221789 -0.037975896 -0.1275715 -0.082087174 -0.06398479 0.072419345 0.08845411 -0.060450044 0.060426705 0.15305418 0.08688949 0.11065459 0.04955921 -0.03154187 -0.022898018 0.003358056 0.03811093 0.03331975 -0.12931229 0.007209825 0.054445967 0.19610515 0.06351626 -0.10040155 -0.19231659 -0.08698217 -0.2208961 -0.12878647 0.16763268 -0.017111463 -0.18841177 -0.15560353 -0.12673193 -0.06724305 0.17308988 -0.0057402793 0.084315784 -0.085080974 -0.21307825 -0.17019899 -0.03868748 -0.052143104 -0.0937419 0.11493268 0.00010427678 -0.008235434 -0.026757853 0.1333519 -0.08084765 -0.21574235 -0.15147407 0.1939793 0.084979475 -0.12061579 -0.018531924 0.0014069339 0.0035075857 -0.20988365 0.10554492 0.034036815 0.18268792 0.072730206 0.028035682 0.068620585 0.16960853 0.09380309 0.06139213 0.09310931 0.16598365 -0.14947017 -0.012528808 -0.07422183 0.031011274 0.06602136 -0.024019819 0.015204268 0.07364437 0.14384025 -0.20837612 0.07067158 -0.09371411 -0.048292983 -0.05186779 -0.035770793 -0.09066984 -0.13453104 -0.13318917 -0.18875258 0.081094146 -0.08814052 -0.030466802 0.11150555 -0.059209798 0.032038163 -0.12367499 -0.11102662 0.11428844 0.1405844 -0.020682076 -0.06285293 -0.021853624 0.08987326 0.07171771 0.07083494 0.03206765 0.07152284 -0.016258096 0.19573922 0.02163634 -0.17376027 -0.19517834 0.00020270498 0.017170716 0.037506048 -0.031058563 -0.1360015 0.07528944 0.09484009 0.029866705 -0.09101238 -0.026912687 0.037565827 0.15358329 0.11054681 -0.05859865 -0.07224982 0.06508997 0.181197 -0.05858043 0.02194375 -0.051029004 -0.06549831 0.051464606 0.032270763 -0.039794903 -0.0029612975 0.065193616 -0.025683437 -0.050717868 0.030678317 0.086474806 -0.09989399 0.0056874794 0.046524215 0.08743818 -0.25801888 -0.1467829 0.058124218 0.06040494 0.096645 -0.016099885 0.03576118 0.13394278 -0.093711324 0.0035107373 -0.039813515 0.07566405 0.093312785 0.16465175 0.0804936 0.06566485 0.040388286 0.0026553671 -0.10066976 -0.043354463 -0.16987984 -0.11150354 -0.07528604 0.091754414 0.014260441 0.11963984 0.09307341 0.0903232 -0.034781694 0.21941441 0.21631417 0.07451589 -0.0289207 -0.21558186 -0.17025135 0.008768124 -0.07723009 -0.0653303 -0.08187929 0.07831449 0.07163444 0.088443644 0.116650395 0.1279346 0.17902917 0.14295325 -0.016484411 -0.050689653 0.010268503 -0.08507459 -0.20301336 0.046928234 0.017931608 -0.016346503 -0.2924983 -0.075440876 0.12932067 -0.034288023 -0.1671374 -0.06371268 -0.0907634 -0.34216332 -0.15087453 0.13876672 -0.11393642 -0.27651927 -0.14518318 -0.13721807 -0.022591416 0.12740642 0.09674827 0.15591554 0.10136322 0.04129553 -0.32223764 -0.13761225 -0.18187158 -0.46913454 -0.29446223 -0.099505246 -0.13827829 -0.0070726364 -0.22998942 -0.03554071 0.010678124 -0.0049581076 0.01593923 -0.12594797 0.055264957 -0.0736696 -0.23888433 -0.051257163 -0.122807436 0.035074867 0.04260885 -0.06425272 0.02229151 -0.10564195 -0.04471482 -0.072748415 -0.067753874 -0.076805204 0.15848269 -0.085637756 -0.13832112 -0.07539442 0.08982956 0.05603719 0.08488222 0.090150736 0.14728649 -0.18828756 -0.011013333 -0.03186287 -0.03602153 -0.18075274 0.0187075 0.118018284 -0.06445638 -0.08914546 0.07667659 0.0036721702 -0.24174581 -0.10324795 0.06275045 -0.16100204 0.011198239 0.008697775 0.06838719 0.11078509 0.15099159 0.097542435 -0.17258412 -0.34629956 -0.1676702 -0.026676273 -0.0055070925 -0.1517262 -0.23116757 -0.08894231 -0.04155478 -0.0016469595 -0.07930913 -0.07628077 -0.19334017 -0.117065735 -0.02111052 0.041847147 0.08779184 0.13996033 0.11446904 0.11475109 0.1695155 0.14303468 0.08343566 0.10060505 0.14679329 -0.040625278 -0.11929214 0.15476511 -0.077825055 -0.08589132 0.016581489 0.15158041 0.027487293 0.09351134 -0.015786504 -0.10229597 -0.26585633 -0.30815136 -0.25795797 -0.15156902 -0.18683818 -0.15569748 -0.1664711 -0.29624093 -0.1005136 -0.012057344 0.030008554 0.13686323 -0.008676246 -0.08623687 -0.048931163 -0.054590616 -0.13039187 -0.09404135 -0.057592567 -0.10958826 0.04633271 0.099174164 -0.0629731 -0.05126184 -0.23104803 -0.13466139 -0.039538514 -0.031726014 0.03617108 0.22737183 0.0013683875 -0.04585868 -0.060443193 -0.35410663 -0.19127974 -0.008837201 0.14607492 0.052791238 -0.025123723 0.07835159 0.16994359 -0.08105823 -0.12629947 -0.18750295 0.20100571 0.059583202 0.013382291 0.18484907 0.06812103 0.06417966 0.10779849 0.09489488 -0.002451382 -0.0075883176 -0.031419206 0.15079439 0.103992775 0.08233996 -0.02941003 0.027885642 -0.12624048 0.07858925 -0.11586622 0.17676854 0.051973484 0.15218513 0.16123414 -0.06153398 0.053769436 -0.13645776 -0.029656503 0.07107267 -0.0006393312 -0.014773039 0.03243634 0.07658923 -0.09094848 -0.16895016 0.010667709 -0.22980349 0.10324947 0.14239821 0.1253476 -0.0732772 -0.21918759 -0.23582132 0.12384785 0.11051509 -0.1505412 -0.28862575 -0.056519426 0.004835659 -0.00024041733 0.20841007 0.061940886 -0.16859178 0.009996766 0.06831246 -0.029881136 -0.08215069 0.073853076 -0.02371454 -0.020628234 0.14298652 -0.055775285 -0.10521362 -0.10726488 0.055739738 0.10287731 0.24492697 0.079595484 0.16819887 0.16801801 -0.04360485 0.057703197 0.07808818 -0.2753835 0.013004566 0.041266263 -0.044292696 0.13272631 -0.13923688 -0.17601198 -0.102074064 0.015406059 -0.09420832 0.0009886854 0.14066547 0.12265316 0.024282042 -0.17456536 0.07582312 -0.054971285 -0.072029494 -0.023408359 0.037523434 -0.034462422 0.15092932 0.013055334 -0.09246789 0.013339687 0.1454604 -0.22804636 0.09777266 0.084604785 -0.13412766 0.0009971992 0.0101209795 -0.12722369 0.04917233 -0.084886685 0.11494441 -0.10403171 -0.12683563 -0.046609093 -0.1375841 0.10331814 -0.0983248 -0.20097253 -0.042388503 -0.09771238 -0.14049116 -0.0914578 -0.21262792 -0.02371704 0.17979074 -0.078676045 -0.118668415 -0.17292912 -0.07241282 0.2567305 -0.18728977 -0.14087169 -0.008769715 0.14678675 -0.06523949 -0.15223421 0.27950186 0.17143083 -0.046769846 0.223999 -0.019291602 -0.094281554 -0.016814075 0.11529082 0.22503294 -0.15268984 -0.046496022 0.016961915 0.039330356 -0.21082675 0.058072302 0.07340851 0.14149788 0.12700471 -0.20293488 -0.08454271 -0.12586637 -0.15709881 -0.18497847 -0.23956244 -0.10640142 -0.10153478 -0.17959182 -0.19536781 -0.3898762 -0.19188422 -0.05087225 -0.1090098 0.041675985 0.06670829 -0.16972871 -0.16757083 0.02025542 0.01748364 0.12451305 0.033106554 0.017579082 0.23440525 0.096093684 0.050355237 0.06761898 0.061606787 0.023243964 0.11242116 0.06806022 -0.27112576 -0.083102815 0.1433166 0.046725996 0.084373035 -0.055409513 -0.39851436 -0.0092121605 -0.1549841 -0.097913384 -0.026780924 -0.12807342 0.14914432 0.051870193 -0.17130145 0.06720656 -0.18131024 -0.089594886 -0.11314587 -0.0017447057 -0.08790829 -0.110258445 -0.11889944 -0.009962624 -0.33540884 -0.0002846294 -0.020093348 -0.116128035 0.14752004 -0.10056639 -0.13754702 -0.065103136 -0.10823807 0.075918086 -0.18800408 -0.06889703 -0.019717535 0.067290395 0.04514339 -0.27270782 -0.043544963 -0.12741886 -0.083677605 -0.029270824 0.17547163 0.019256463 -0.18012737 0.032206308 0.043597948 -0.09281677 0.0147149 -0.12395153 0.14646049 -0.023087963 0.04922819 0.054993693 -0.02132366 0.007208503 0.024288718 0.124769226 -0.080828555 -0.05583302 0.035602916 -0.18894829 -0.16415617 -0.16664515 -0.07939704 0.040273096 -0.12041174 -0.03501567 0.06603139 0.009610663 0.012413147 0.045699064 -0.036301706 -0.026676338 -0.08807493 -0.020248387 0.087461114 0.011875974 -0.09513044 -0.053429414 -0.111453906 0.03271732 0.02850952 0.028864257 -0.020609085 -0.25167868 0.25854883 0.19260232 -0.14576061 -0.0051112375 0.08810998 0.18669629 0.048810355 -0.037772503 -0.21188463 -0.1415897 0.087148845 -0.041730583 0.02875153 0.21833022 0.006520381 0.044741917 0.086430244 -0.064861126 0.05194046 0.12558372 0.15493263 0.04662872 0.12619619 -0.07236898 -0.02100036 -0.025544332 -0.01771408 0.12586792 0.040969353 -0.15162641 0.009174075 0.15624118 0.14962894 0.10395475 0.009740256 -0.15003575 0.089636035 0.07183623 0.082096815 -0.12645678 0.0992794 0.024247138 0.05812672 -0.009252319 -0.31943604 -0.03581044 -0.028276097 0.029712684 -0.057841696 -0.1331727 0.020514838 0.16163859 0.15292607 0.0015559569 0.15004073 -0.048515707 0.2057789 0.09511484 -0.06580678 0.13341303 0.013347801 -0.08719539 -0.1965712 -0.052261952 -0.042470228 -0.12270897 0.032380886 -0.0040490003 0.015843095 0.08241604 0.056138296 0.10642322 -0.46008483 -0.18783695 -0.09560902 -0.071732804 -0.034169607 0.08514152 -0.022220677 -0.15936734 -0.04205407 -0.0016319737 -0.048405215 0.2304032 0.21624269 0.0403765 0.08825493 0.102543294 0.09758763 -0.028848926 -0.09227416 -0.14380823 0.016196933 0.08115735 -0.03160491 0.00043300274 -0.18617046 0.089113034 0.03232765 -0.060183804 -0.13542767 0.0002616693 -0.16264205 -0.06990438 -0.16139229 -0.17945169 -0.08565891 0.007824142 -0.056365114 0.04547904 0.045635644 0.14019072 -0.02989586 -0.078844026 0.018045466 -0.011321653 0.024717985 -0.12004798 0.048019975 0.09179143 0.06300755 -0.13293082 0.017341904 0.09699192 0.057817787 0.035414416 -0.17088722 -0.14304034 -0.11131867 -0.105559506 -0.0065689697 0.03198587 0.16923787 0.017047018 -0.19958784 0.03602963 0.24741429 0.2484793 0.035407204 -0.17003469 0.07899605 0.087348625 -0.068211146 -0.04541374 0.08199547 -0.0925564 -0.25058863 -0.03393732 -0.104615144 -0.10909233 -0.07978468 0.1437216 0.015982931 0.24262121 0.09014662 0.18673152 0.08898033 0.21063207 0.029491484 -0.0276153 -0.031927597 0.16392446 -0.09293601 -0.27376664 -0.004825989 0.070161946 -0.061501533 0.041784137 -0.0051806113 0.09117197 0.0030346988 -0.18827477 0.012093233 0.049781438 -0.13381906 -0.2031415 -0.23881362 -0.26996955 -0.134032 0.026928313 -0.18529537 -0.02348099 0.03246342 0.058731433 0.010449566 -0.038461164 0.025960859 -0.07839587 -0.058387283 0.091576114 0.19736448 0.24789862 -0.057208322 -0.01286481 0.100357294 0.16979675 0.041062485 0.06674315 0.18845132 -0.062976554 0.011547493 -0.14235845 0.052398093 -0.2881526 -0.24289596 0.051011782 0.04598258 -0.37074757 -0.22258158 0.02666144 0.05979432 0.03975094 -0.05237412 0.08059911 0.0051554055 -0.15286264 -0.019690948 -0.008439575 0.048575267 0.021729046 -0.17342642 -0.22814478 -0.16100062 -0.13113496 -0.019045204 -0.09134327 0.05850435 0.08316762 0.0022210171 -0.03803132 -0.041129213 0.038397655 0.1317849 -0.10858195 -0.044697654 -0.02298632 -0.06161176 -0.08446084 -0.10776536 0.050375145 0.07391937 -0.20447016 -0.040640928 -0.24681771 0.11545496 0.22504307 0.12217214 -0.008465076 0.10012863 -0.1248183 0.07133838 -0.113365814 0.014249133 -0.05707715 -0.105992444 -0.13216932 -0.12352588 -0.097832315 0.07656198 0.09035539 -0.007317288 0.04716138 0.017711176 -0.03557638 -0.06567985 -0.07472179 -0.1362657 -0.11549672 0.018908145 0.13960949 -0.012723039 0.01733213 -0.067617625 -0.0069834357 0.013142942 -0.028838765 -0.09430994 0.009380346 0.012493686 -0.0014021224 -0.07914831 -0.1946276 -0.034607876 0.12869346 0.011346093 -0.022495009 0.049763173 -0.019062182 -0.05485302 -0.028841639 -0.051413603 -0.15595418 0.14163375 -0.010714405 -0.08622166 0.0472581 -0.024812747 0.022110926 0.08300626 0.15681192 0.024230508 0.07894472 0.002983768 0.20282824 0.2326202 0.22257876 -0.13472475 0.0009001626 0.08325475 -0.027048357 -0.1421611 0.08272792 0.10494672 -1.3455632e-05 0.0665739 0.1106476 -0.22470823 -0.2518908 -0.21851464 0.03598019 -0.22087827 -0.05479628 0.09101359 0.10050678 0.0048171915 -0.011688971 -0.27264607 -0.17351958 0.19026761 -0.07648939 -0.1836779 -0.052050903 0.07733307 0.033645675 -0.102520175 -0.1681091 -0.12509531 -0.06102554 -0.17625599 -0.1931244 -0.037375014 -0.11746023 0.07660318 0.088364415 -0.059307355 -0.00043301948 0.09306477 0.045628894 0.15634014 -0.08922196 -0.12511396 0.04540994 0.055447888 -0.1351899 0.101867296 -0.03155526 0.03835168 -0.025516862 -0.087191276 0.05541079 -0.026017047 -0.015767481 0.2442559 0.049638376 -0.11943287 0.04168099 0.0016088849 -0.18734053 0.0075610126 0.12840508 0.20449422 0.04797944 0.22083035 0.035814535 0.15704691 0.13430662 0.20911388 0.24177785 -0.14042242 0.05489917 0.063766435 0.120199904 0.039090086 0.020816788 0.12507229 -0.11824416 0.040529042 -0.0015544354 0.054449607 -0.11949741 -0.05230303 0.0018379695 -0.020561531 0.05102197 -0.057358272 0.12821545 -0.26143828 -0.14839159 -0.20615295 0.09382816 0.12552628 -0.21884733 0.051725596 -0.12237738 -0.1333072 -0.028117547 0.09303953 0.08085564 0.08526823 0.15775749 0.15697551 0.115137756 0.05216634 -0.01772311 -0.23001574 0.03967589 -0.0049204878 -0.083003014 -0.12259924 0.029716386 -0.08331591 -0.05599007 -0.035678785 -0.038622864 0.0713109 -0.0686267 0.013233145 0.15071312 -0.0046718027 -0.029713688 -0.11203038 -0.08140631 -0.113854945 0.048303653 -0.059574194 -0.022232195 -0.07568181 -0.07287798 -0.06223354 -0.14846249 0.13101782 0.05007606 -0.095384 0.062241875 -0.12550332 -0.14859138 -0.14589328 -0.2854838 -0.03426251 0.25195467 -0.0010012443 0.2040078 0.18798874 0.12287622 0.056213733 -0.27786985 -0.009912356 -0.08653329 0.014391462 -0.33986247 -0.21996315 -0.06799175 -0.18702957 -0.3320826 -0.24194631 -0.37001252 -0.21270482 -0.10327863 -0.10252807 -0.06335623 -0.06825393 -0.029054299 -0.023853285 -0.12676391 -0.16209576 0.0557637 0.09043883 -0.07014365 -0.006821983 -0.042481918 -0.014465502 0.11997629 0.0009632831 0.07557372 0.024582455 -0.059084583 -0.08952497 -0.05502825 -0.06533253 0.06025976 -0.08526073 0.042496704 -0.023951322 -0.044892985 0.06871406 -0.043251563 -0.018109228 0.22896282 0.067155674 -0.04228285 0.13312289 0.026036805 -0.0073760236 0.051049586 0.020740088 -0.041659284 -0.09954022 -0.11430369 -0.13212162 -0.13732508 0.028702313 0.040480334 -0.14384088 0.34569377 0.038852584 0.20477083 -0.0047741723 0.04327705 0.058886927 0.106394745 0.04966139 -0.010924342 -0.09236313 -0.13004877 -0.17278218 0.0025558632 -0.076790355 0.02551461 0.0104721505 -0.0824497 0.05429927 0.030493539 0.19001393 0.07531579 0.038589727 0.12751396 0.122919135 0.13829136 0.092474565 -0.019756833 0.13069168 0.03753075 0.1518499 0.033793446 -0.10727801 0.13975485 0.06622346 0.042595197 -0.0029566663 -0.11777922 -0.23759188 -0.14209287 -0.36802474 -0.38628462 -0.26161817 -0.22636227 -0.4385727 -0.3791849 0.030096615 0.03470859 0.08114431 -0.2841921 0.040685087 0.029754434 0.07153125 0.06386676 -0.32100537 -0.17105508 -0.024563393 0.12512848 0.06961809 0.016731035 0.10326134 -0.020120485 0.077225395 0.06114779 -0.17400303 0.06160078 -0.10656556 -0.025461413 0.21644011 -0.079494506 -0.109771095 0.04645807 -0.06489591 0.28916526 0.20874065 0.08361779 0.0344515 0.019896198 0.13172747 0.077015325 0.0004999643 0.028991334 0.004536923 0.1126307 -0.04890284 0.100323044 0.1333347 0.005171072 0.048931967 0.13014184 0.0051034684 -0.49076164 -0.028789096 0.057871718 0.019505434 0.05902346 -0.17238875 -0.18915607 -0.15309449 -0.1915423 -0.111364864 -0.014426688 0.008222443 0.008169557 0.0063028643 0.026280088 -0.12159188 0.04519559 0.032568198 0.08771702 -0.06168885 -0.10855938 0.10933665 -0.040501375 -0.0046368656 0.005346054 -0.057587735 -0.1048888 -0.05750622 0.028855978 -0.092022695 -0.10709788 -0.12128457 -0.22876504 -0.21260925 -0.24067661 -0.21807528 0.23572947 0.02929657 -0.17309675 -0.015169151 0.083246075 -0.23635381 0.07696801 0.12555479 0.14417782 -0.08173448 -0.20613307 0.043320514 -0.0074200886 0.052870825 -0.05811215 -0.10477184 0.09460832 0.23941986 0.15529336 0.087178774 0.06865257 0.10945166 0.13707998 0.102462135 -0.028392086 0.101238765 0.09986135 0.010449893 -0.09834565 -0.07847255 -0.032327358 -0.13809621 0.20607947 0.067034476 0.07942025 -0.15201978 -0.02809412 -0.03998603 -0.14866634 -0.028785683 -0.10335999 -0.017746454 -0.058191817 0.13410035 -0.21227947 -0.50685877 -0.3893485 -0.09710014 -0.23622723 -0.24306978 -0.20615888 -0.27911335 -0.1922227 0.06411974 -0.015397293 -0.123955734 -0.08265963 -0.00935569 0.030450504 -0.012107207 -0.18485811 -0.063132145 0.03014401 0.13459395 -0.048343964 -0.008771391 0.071370006 0.034964662 0.012639769 0.081724495 0.08479734 -0.07651747 -0.26422897 0.026725559 -0.18863145 -0.24191184 -0.14445263 -0.060037304 0.06571324 -0.103727184 -0.068466894 0.029292185 0.09520028 0.019889727 0.17359589 0.21783881 0.15972626 0.15511633 0.058090214 -0.011175383 0.0030535334 -0.06287456 0.13992447 0.17738843 0.047206473 0.1505799 0.010930677 0.12491334 -0.05528627 -0.0727955 -0.12063079 -0.00821298 0.088493824 -0.015144626 -0.25119483 0.113813944 0.10544802 0.097023815 0.117613375 -0.15570673 -0.010092267 0.0027965696 -0.17503054 -0.11053226 -0.23831882 -0.0066355094 0.02957692 0.03949892 0.11424205 -0.06952002 -0.031692628 0.15996382 -0.03685009 -0.032548167 0.062560104 -0.13816044 0.028344464 -0.036669306 0.083895996 0.12288796 0.0012441147 -0.02578229 0.011292152 0.04134137 0.19997758 0.034575067 -0.15479204 -0.08993625 0.10596667 -0.22397435 -0.13364668 -0.004462349 0.051133256 -0.10758393 -0.09078729 -0.14183512 -0.09929359 0.003196579 -0.12162613 -0.07627721 -0.08543454 -0.07655279 0.08050321 0.040407535 -0.011686379 -0.208165 0.14062837 -0.10145806 -0.172886 -0.036980573 0.08325688 -0.15169066 0.01927844 -0.12050195 -0.042777803 -0.006508711 -0.019787911 -0.019082014 0.076695435 -0.003488641 0.09453654 -0.06794351 -0.0017475503 -0.1487676 -0.03859893 0.021320406 -0.0071274485 -0.022217968 -0.059093274 -0.079077266 -0.12996471 0.07000795 0.11513164 0.19074185 0.046457563 -0.07816405 -0.099489294 0.07652881 0.0886923 0.0759536 -0.046175554 0.041449286 0.11762953 0.11142708 0.02509247 0.049206596 0.1524869 -0.05152958 0.025422538 -0.020595465 -0.013953571 0.053326353 0.03490023 -0.15472876 -0.16035827 0.02757339 -0.004131176 0.027848322 0.10224362 -0.016858494 -0.23598252 0.066462226 -0.11128243 0.029186828 -0.13208139 0.009617704 -0.11340208 0.06685767 -0.027968392 -0.0657079 0.12446585 0.018533332 0.08058749 -0.09711081 -0.01054786 -0.050495096 0.07319105 -0.15066229 -0.011074253 -0.1259966 -0.33751637 0.18055405 0.065908276 0.05318025 -0.0709026 -0.028882675 -0.033505734 0.2543485 0.14717986 0.12891063 0.14474112 0.08291595 0.074131764 -0.22253455 -0.034008473 -0.029569931 -0.16420895 -0.03321535 -0.16755922 -0.22330129 -0.2607645 -0.16841252 -0.041899595 -0.14924926 -0.12916224 0.00094396016 -0.11587153 -0.16271298 -0.11046206 0.08263491 -0.117409065 -0.20871247 -0.00016483205 -0.15569533 -0.08183091 0.0031161865 -0.10147387 -0.10897918 0.08517195 -0.12888344 0.003011906 -0.016059803 -0.11424154 0.039263714 -0.049035683 -0.15130603 0.017777346 0.061261 -0.013354176 -0.058566354 -0.17098296 -0.15837081 -0.067301266 -0.19089955 0.062543824 -0.013983489 -0.223461 -0.026398418 -0.3042686 -0.022970753 0.23176217 -0.032141227 0.07662213 0.10032189 -0.12249093 -0.03150007 0.114856176 -0.035160553 -0.3191422 -0.010252521 0.0090638 -0.42515594 0.08243585 -0.11515675 -0.40990427 -0.1198869 0.16769479 0.09765708 0.042019743 0.054447662 0.052815642 0.032729924 0.161579 0.21105415 0.1307343 -0.05844901 0.024166085 -0.0072961305 -0.051342133 -0.014672114 0.03239217 -0.058252547 0.16445118 0.27190164 -0.004595879 0.074311726 -0.21157323 -0.1705085 -0.14042868 0.07210399 0.047771946 0.06764747 0.2608074 0.10977019 0.14670473 -0.08879972 -0.07789884 0.072877534 -0.010320947 0.0043791207 0.121285446 0.21045665 0.10338846 0.051389758 0.10230968 -0.047071062 0.14299147 0.10698156 -0.037265558 -0.020660337 -0.13151675 0.06796988 -0.12798713 0.10370024 0.057221614 -0.009632753 0.0030935192 -0.11125701 0.050336905 0.15047975 -0.09380441 -0.13667826 -0.04278238 0.016042668 -0.016387045 0.10638116 -0.18588121 -0.0016694505 -0.11144394 0.048890453 -0.07770105 -0.3080803 0.081648186 0.09965029 -0.18422146 0.12441656 0.009054773 -0.08158268 0.16268855 -0.060942046 0.023566784 -0.02521102 -0.024644436 0.046416886 -0.049433526 -0.049687527 -0.018694142 -0.12293352 0.2052786 0.02467681 0.186915 0.023304349 -0.40771013 -0.12513459 -0.13530815 -0.2662897 0.06459888 -0.1677954 -0.07667459 -0.19206148 0.02526382 -0.10496706 -0.0155074075 -0.048252143 -0.1099252 -0.11053268 -0.1693629 -0.07183568 -0.017903568 0.14405046 0.011909673 0.0044909767 0.17531583 0.28266403 -0.102747984 0.04922899 -0.040052976 -0.07872755 0.06689565 -0.026327504 0.08892269 0.2342976 0.1623601 -0.18858965 0.09954285 0.07390537 -0.073271036 0.11968276 0.001128682 -0.0051618633 -0.10867238 -0.03109605 -0.113186784 0.18457809 -0.11325001 0.1561914 -0.063275695 -0.37889147 -0.033404447 -0.08477244 -0.23589855 0.01282869 -0.08189361 -0.0009915353 -0.2589126 0.15719931 -0.06323784 0.0065890052 -0.010285397 0.12169721 0.02653244 0.026642723 -0.016181648 0.24507535 0.10859537 -0.13148585 -0.036007 -0.037647784 -0.09232246 -0.015463705 0.017375225 0.07615935 -0.0054372717 0.11740922 0.014939115 -0.086032204 0.044839587 0.12163261 0.110123694 -0.11513494 0.061066166 -0.038038388 -0.07130849 -0.0101820715 -0.14181802 -0.12559228 0.056413494 0.11707394 0.029711686 0.06582821 -0.104365274 -0.087281615 0.013742751 0.13210522 -0.010673329 0.003702668 0.12973914 0.047607884 0.01773965 0.08503922 0.107464425 0.19113387 -0.019249031 -0.13070245 -0.21668747 -0.087816395 -0.012316522 -0.22648585 -0.1390016 -0.24550466 -0.006832107 0.12164468 -0.024621794 -0.035597693 -0.086539686 -0.09035255 -0.1580499 -0.17610444 0.06106996 -0.097872905 -0.0016768832 -0.22645809 -0.08900763 0.08319593 -0.028806612 -0.080942824 0.011954199 -0.043155197 0.029870233 -0.37397882 -0.14709716 -0.20863 0.011378063 0.050744772 0.028249182 0.057886183 0.18742634 0.07739047 0.104827814 -0.0107730925 -0.26571602 0.16564153 0.068211205 -0.1623956 -0.22168769 -0.051585328 -0.11525957 -0.06410605 -0.012361248 0.25482902 -0.036805715 -0.061004486 0.023547748 -0.0154638225 0.1049021 -0.064311974 -0.33971322 -0.21776013 -0.09688504 -0.037888724 0.07480805 -0.0007878808 -0.22724406 0.082941085 -0.11070882 -0.061486945 -0.22464532 -0.16288792 -0.16193363 0.1081352 0.1022488 0.13350768 -0.09029338 -0.01628611 -0.008022622 0.13712472 -0.03932552 0.0692141 -0.083081216 0.013267495 0.10580517 -0.1076925 0.05929448 0.03481732 -0.09757175 0.044422504 0.03350118 -0.049721207 0.11870013 0.016664565 0.014346572 0.13863958 -0.07920606 -0.14855276 0.058758855 0.12960483 -0.13271746 -0.10171036 -0.24928486 -0.31574506 -0.21144406 -0.17804882 0.07674897 0.12233524 -0.06549631 0.10918501 0.1202763 0.0860406 0.052353706 -0.04575684 -0.0009455039 0.020706428 -0.13093023 0.066773295 0.06706098 -0.05918179 -0.10941972 -0.044963453 0.10623679 0.122081995 -0.048969302 -0.10888535 0.0025683525 -0.052098 0.031184953 -0.012585857 0.008704758 -0.072731584 -0.059103537 0.10906764 0.017334433 -0.08621801 -0.0609714 -0.0065991567 0.07564216 -0.0053948606 0.084296614 0.15952615 -0.14592972 -0.04589676 0.11744297 -0.14070089 -0.18399428 0.09642966 0.08250792 0.02210634 -0.07377794 -0.017588587 -0.06422703 -0.17716248 0.07788583 0.07344142 0.021904364 -0.014721448 -0.005186583 0.052253135 -0.080633186 -0.1470863 -0.038274728 0.050079074 -0.09420751 0.10565336 0.034093626 -0.14983472 0.006513966 0.0093101915 -0.006575049 -0.13018037 0.05387605 0.118946955 -0.03183099 0.015341621 0.1097435 0.030221729 -0.012591626 -0.093590535 -0.13179772 -0.057132054 0.10004167 -0.02254919 0.046666067 -0.023851026 0.10090903 -0.02504697 0.04989793 0.09624167 -0.23767237 -0.36241582 -0.3366485 -0.7395437 -0.50316834 0.23076922 0.20121315 0.18076399 0.053228524 -0.13334465 0.12771101 0.07423237 0.03497507 0.098804615 -0.09298789 -0.08966515 -0.086717695 -0.0015426591 -0.050519995 -0.078363426 0.022498176 0.043395936 -0.050688736 0.03432336 -0.008818336 -0.16735879 0.21529682 0.29195744 0.06945127 0.037608586 0.007647155 -0.007558067 -0.09521738 -0.062259197 0.08162357 0.14140046 0.10531549 -0.02481076 -0.21181998 -0.34487978 -0.19643058 0.15277147 0.020693325 0.18070282 -0.08669171 -0.40820575 -0.3032873 -0.44092754 -0.43807253 -0.24914074 0.016265316 0.07489455 0.24564402 0.029165657 -0.01740075 -0.01367929 0.06977323 -0.04607896 0.106542036 -0.14724952 -0.109878436 -0.10955599 -0.024085417 -0.009614328 -0.15743846 0.104801446 -0.046992585 0.019597897 0.019907493 0.002204806 -0.1365625 0.023530656 0.008090125 0.04310038 0.055251148 0.109933294 -0.010834267 -0.19744384 -0.17688468 -0.18677443 -0.26534852 0.06381842 0.13811314 -0.08170972 0.0026837739 -0.005086746 -0.10959618 0.08575061 -0.10366493 -0.010519105 -0.11024724 0.03242592 -0.05321287 -0.06610119 0.020927155 -0.016391005 0.09318708 -0.14662217 0.12579559 0.040495172 -0.094172694 0.13997126 -0.025574366 -0.036862515 -0.03575469 -0.0035790785 0.050286 -0.016723005 -0.024750272 -0.031132298 0.020598229 -0.013271854 -0.025781758 0.059207685 0.020192537 0.03160621 -0.066915385 -0.0039010362 -0.024285365 0.068809755 0.015207348 0.07457385 0.031719204 -0.08152706 -0.15260601 -0.04627066 0.09676252 -0.11810219 0.0056626424 -0.14019194 -0.04071331 0.20656264 -0.072243966 -0.04301029 0.037158147 -0.05488686 -0.011580428 0.016414672 -0.13090353 -0.020752614 0.07675536 0.02464671 0.058371864 0.0039603496 0.17861933 0.018013177 -0.14127736 -0.0686015 0.008472238 0.2576991 0.10743353 0.2233989 0.07125498 0.051229674 -0.30924913 -0.55670375 -0.6058185 -0.49983484 -0.16470991 0.10200985 0.0027963144 0.009180119 0.18503696 -0.0047570816 -0.21338926 -0.14857775 -0.27334923 -0.024762183 0.018527452 0.04004766 0.0010428478 -0.08770283 -0.07955336 -0.018561238 -0.17016153 -0.093148805 -0.17977425 -0.061169498 0.0899698 -0.08312133 -0.16398571 0.069614336 -0.011586682 -0.24383266 -0.15990688 0.14345476 0.15511607 0.11165482 -0.014940961 -0.08707947 -0.07248966 -0.21770868 -0.17728165 -0.091058634 -0.15407549 -0.020442415 -0.0705334 -0.023612041 0.13794969 -0.15543894 -0.15849447 0.11135778 -0.063233405 -0.2234451 -0.062391452 0.10946808 0.04605824 0.10930271 0.07672529 0.08132357 0.12477145 0.16559786 0.114859566 0.049741 0.08989436 -0.09130438 -0.09820719 -0.13413386 0.05576716 -0.00041370254 0.11040153 0.13803963 0.13659456 0.06403482 -0.1107073 -0.11849768 -0.08122759 0.047783453 0.0705329 -0.045183983 0.059293013 0.09593018 0.024916956 -0.10679144 -0.018742934 -0.06805585 -0.039920706 0.07774997 0.06689278 0.1434837 0.12256992 0.0859607 0.07565917 0.1275712 -0.019946434 0.04035898 0.22268736 0.11094698 0.12297309 -0.021699786 0.12623473 -0.038891282 0.02741106 -0.05855252 -0.085004374 0.022536632 -0.0059974166 -0.013843099 0.02095186 0.030538015 -0.06848271 0.044986237 -0.12608492 -0.17862459 -0.06183465 -0.0438439 -0.14205936 -0.102875955 -0.06979832 -0.084372915 -0.10943725 0.09275946 -0.12205867 -0.11351449 -0.30938676 -0.08315263 0.109799996 0.035296936 0.024745237 0.0068503506 -0.0022612754 -0.20109214 -0.07972817 0.13483825 0.08203722 -0.2040295 -0.043089803 -0.1558001 -0.14856666 -0.009033603 -0.18692243 -0.102586284 -0.10928094 -0.12522319 -0.24100003 0.017136011 -0.03933281 0.19451022 0.19285496 0.1518202 0.19639489 0.10772161 0.03942364 -0.06537094 -0.11532281 -0.035097227 -0.07983894 -0.02164667 -0.09601218 0.074999034 -0.03405261 -0.010738598 0.028886471 0.113364324 0.17757018 0.11210195 -0.033789486 0.031624053 0.056143686 0.2621663 0.15116476 0.2684496 0.086285286 0.05484756 -0.1512486 0.03691172 -0.15486339 -0.019324763 -0.029660184 0.076167345 0.023223408 -0.21078445 -0.034809347 0.08517447 0.15272014 -0.053373583 -0.05000584 0.0020226047 -0.22443888 -0.19859529 0.0094068255 -0.009950228 0.05222671 0.04432287 0.08048158 0.17502093 0.09093822 0.08239675 -0.06262889 -0.045568146 0.069631994 0.17541693 0.07919685 -0.06660755 0.08375954 0.08761664 -0.01675549 0.023785437 0.15531966 0.0017967481 0.0055088904 -0.01773559 0.024633314 -0.004367425 0.022006357 0.10184781 -0.05324861 0.067544125 0.0061571584 0.053148676 